{"learner":{"attributes":{},"feature_names":["year","month","day","hour","day_of_week","lag_1","lag_2","lag_3","rolling_mean_3","rolling_mean_6","rolling_mean_12","hour_sin","hour_cos"],"feature_types":["int","int","int","int","int","float","float","float","float","float","float","float","float"],"gradient_booster":{"model":{"gbtree_model_param":{"num_parallel_tree":"1","num_trees":"500"},"iteration_indptr":[0,1,2,3,4,5,6,7,8,9,10,11,12,13,14,15,16,17,18,19,20,21,22,23,24,25,26,27,28,29,30,31,32,33,34,35,36,37,38,39,40,41,42,43,44,45,46,47,48,49,50,51,52,53,54,55,56,57,58,59,60,61,62,63,64,65,66,67,68,69,70,71,72,73,74,75,76,77,78,79,80,81,82,83,84,85,86,87,88,89,90,91,92,93,94,95,96,97,98,99,100,101,102,103,104,105,106,107,108,109,110,111,112,113,114,115,116,117,118,119,120,121,122,123,124,125,126,127,128,129,130,131,132,133,134,135,136,137,138,139,140,141,142,143,144,145,146,147,148,149,150,151,152,153,154,155,156,157,158,159,160,161,162,163,164,165,166,167,168,169,170,171,172,173,174,175,176,177,178,179,180,181,182,183,184,185,186,187,188,189,190,191,192,193,194,195,196,197,198,199,200,201,202,203,204,205,206,207,208,209,210,211,212,213,214,215,216,217,218,219,220,221,222,223,224,225,226,227,228,229,230,231,232,233,234,235,236,237,238,239,240,241,242,243,244,245,246,247,248,249,250,251,252,253,254,255,256,257,258,259,260,261,262,263,264,265,266,267,268,269,270,271,272,273,274,275,276,277,278,279,280,281,282,283,284,285,286,287,288,289,290,291,292,293,294,295,296,297,298,299,300,301,302,303,304,305,306,307,308,309,310,311,312,313,314,315,316,317,318,319,320,321,322,323,324,325,326,327,328,329,330,331,332,333,334,335,336,337,338,339,340,341,342,343,344,345,346,347,348,349,350,351,352,353,354,355,356,357,358,359,360,361,362,363,364,365,366,367,368,369,370,371,372,373,374,375,376,377,378,379,380,381,382,383,384,385,386,387,388,389,390,391,392,393,394,395,396,397,398,399,400,401,402,403,404,405,406,407,408,409,410,411,412,413,414,415,416,417,418,419,420,421,422,423,424,425,426,427,428,429,430,431,432,433,434,435,436,437,438,439,440,441,442,443,444,445,446,447,448,449,450,451,452,453,454,455,456,457,458,459,460,461,462,463,464,465,466,467,468,469,470,471,472,473,474,475,476,477,478,479,480,481,482,483,484,485,486,487,488,489,490,491,492,493,494,495,496,497,498,499,500],"tree_info":[0,0,0,0,0,0,0,0,0,0,0,0,0,0,0,0,0,0,0,0,0,0,0,0,0,0,0,0,0,0,0,0,0,0,0,0,0,0,0,0,0,0,0,0,0,0,0,0,0,0,0,0,0,0,0,0,0,0,0,0,0,0,0,0,0,0,0,0,0,0,0,0,0,0,0,0,0,0,0,0,0,0,0,0,0,0,0,0,0,0,0,0,0,0,0,0,0,0,0,0,0,0,0,0,0,0,0,0,0,0,0,0,0,0,0,0,0,0,0,0,0,0,0,0,0,0,0,0,0,0,0,0,0,0,0,0,0,0,0,0,0,0,0,0,0,0,0,0,0,0,0,0,0,0,0,0,0,0,0,0,0,0,0,0,0,0,0,0,0,0,0,0,0,0,0,0,0,0,0,0,0,0,0,0,0,0,0,0,0,0,0,0,0,0,0,0,0,0,0,0,0,0,0,0,0,0,0,0,0,0,0,0,0,0,0,0,0,0,0,0,0,0,0,0,0,0,0,0,0,0,0,0,0,0,0,0,0,0,0,0,0,0,0,0,0,0,0,0,0,0,0,0,0,0,0,0,0,0,0,0,0,0,0,0,0,0,0,0,0,0,0,0,0,0,0,0,0,0,0,0,0,0,0,0,0,0,0,0,0,0,0,0,0,0,0,0,0,0,0,0,0,0,0,0,0,0,0,0,0,0,0,0,0,0,0,0,0,0,0,0,0,0,0,0,0,0,0,0,0,0,0,0,0,0,0,0,0,0,0,0,0,0,0,0,0,0,0,0,0,0,0,0,0,0,0,0,0,0,0,0,0,0,0,0,0,0,0,0,0,0,0,0,0,0,0,0,0,0,0,0,0,0,0,0,0,0,0,0,0,0,0,0,0,0,0,0,0,0,0,0,0,0,0,0,0,0,0,0,0,0,0,0,0,0,0,0,0,0,0,0,0,0,0,0,0,0,0,0,0,0,0,0,0,0,0,0,0,0,0,0,0,0,0,0,0,0,0,0,0,0,0,0,0,0,0,0,0,0,0,0,0,0,0,0,0,0,0,0,0,0,0,0,0,0,0,0,0,0,0,0,0,0,0,0,0,0,0,0,0,0,0,0,0,0,0,0,0,0,0,0],"trees":[{"base_weights":[-1.230644E-4,-1.6663937E3,2.5178564E3,-3.1092302E3,-7.1979065E2,1.565166E3,4.4214155E3,-4.0060134E3,-2.5665256E3,-1.315158E3,-1.619377E2,9.936974E2,2.2442773E3,3.7472183E3,5.8287036E3,-4.624104E3,-3.675385E3,-3.0927234E3,-2.2643298E3,-1.1036625E3,-1.9717863E3,3.1468987E1,-8.0843396E2,1.1862272E3,3.2835623E2,2.3839556E3,1.3255385E3,3.3019612E3,4.1548237E3,5.3580225E3,7.0834185E3,-5.035588E3,-4.376903E3,-3.9694944E3,-3.3032173E3,-3.3816763E3,-2.7824087E3,-2.6491484E3,-1.9610637E3,-1.3972842E3,-8.288597E2,-2.2988652E3,-1.7126276E3,-2.5375394E2,3.113234E2,-6.470437E2,-1.4071555E3,9.102498E2,1.512088E3,4.6702805E2,-4.4680115E2,2.0406469E3,2.6996328E3,1.4340082E3,5.1045525E1,3.8401494E3,3.045773E3,4.4987207E3,3.8269753E3,5.082103E3,5.8091196E3,6.693696E3,3.9200604E2,-2.6777963E2,-2.4317448E2,-2.276503E2,-2.0524413E2,-2.0825945E2,-1.9127965E2,-1.7734007E2,-1.5565953E2,-1.6483858E2,-1.9066869E2,-1.2789508E2,-1.568179E2,-1.14573204E2,-1.4129399E2,-8.0367615E1,-1.0958937E2,-4.7380108E1,-7.941234E1,-1.7883957E1,-5.0824295E1,-9.4226974E1,-1.2976048E2,-6.860229E1,-1.06359146E2,8.451704E0,-2.196396E1,3.7105053E1,6.9526505E0,-4.8230297E1,-1.3898295E1,-8.653502E1,-4.764227E1,6.611434E1,3.392349E1,9.599062E1,6.3420387E1,9.193385E0,4.0616524E1,-4.806977E1,-1.7496874E0,1.252491E2,9.022464E1,1.5667113E2,1.2388303E2,5.618794E1,9.0195885E1,-1.3254465E1,2.9299528E1,1.813986E2,2.0693517E2,1.5851932E2,1.1975828E2,2.1262341E2,2.4160005E2,1.7585883E2,2.0719827E2,2.721721E2,2.37351E2,3.0697238E2,2.7380896E2,3.4489526E2,3.1609525E2],"categories":[],"categories_nodes":[],"categories_segments":[],"categories_sizes":[],"default_left":[0,0,0,0,0,0,0,0,0,0,0,0,0,0,0,0,0,0,0,0,0,0,0,0,0,0,0,0,0,0,0,0,0,0,0,0,0,0,0,0,0,0,0,0,0,0,0,0,0,0,0,0,0,0,0,0,0,0,0,0,0,0,0,0,0,0,0,0,0,0,0,0,0,0,0,0,0,0,0,0,0,0,0,0,0,0,0,0,0,0,0,0,0,0,0,0,0,0,0,0,0,0,0,0,0,0,0,0,0,0,0,0,0,0,0,0,0,0,0,0,0,0,0,0,0],"id":0,"left_children":[1,3,5,7,9,11,13,15,17,19,21,23,25,27,29,31,33,35,37,39,41,43,45,47,49,51,53,55,57,59,61,63,65,67,69,71,73,75,77,79,81,83,85,87,89,91,93,95,97,99,101,103,105,107,109,111,113,115,117,119,121,123,-1,-1,-1,-1,-1,-1,-1,-1,-1,-1,-1,-1,-1,-1,-1,-1,-1,-1,-1,-1,-1,-1,-1,-1,-1,-1,-1,-1,-1,-1,-1,-1,-1,-1,-1,-1,-1,-1,-1,-1,-1,-1,-1,-1,-1,-1,-1,-1,-1,-1,-1,-1,-1,-1,-1,-1,-1,-1,-1,-1,-1,-1,-1],"loss_changes":[4.0703295E11,7.97273E10,7.005774E10,1.124488E10,1.1707611E10,9.991111E9,1.2204261E10,1.764393E9,2.2843965E9,2.3659028E9,2.2756936E9,1.79106E9,1.5067464E9,1.567957E9,2.4259133E9,2.8657664E8,6.090506E8,4.6169293E8,1.0634527E9,1.0397174E9,3.4809344E8,1.1183697E9,4.0405632E8,9.740073E8,3.3773507E8,1.1012137E9,2.1489587E8,5.6325734E8,4.9532928E8,3.4860237E8,2.8223488E8,3.629261E7,7.247462E7,7.333478E7,1.0537165E8,8.698061E7,1.937367E8,2.4846746E8,4.1472614E8,5.339095E8,5.889495E8,2.2017024E8,3.247836E8,5.4435456E8,5.2471174E8,3.8686054E8,1.2902477E8,5.6017664E8,4.9155584E8,2.6032576E8,1.0104919E8,5.3234893E8,5.042094E8,1.624302E8,2.0956454E7,6.993101E7,2.2184755E8,1.610752E8,2.1463245E8,2.033623E8,9.241395E7,1.3789184E7,0E0,0E0,0E0,0E0,0E0,0E0,0E0,0E0,0E0,0E0,0E0,0E0,0E0,0E0,0E0,0E0,0E0,0E0,0E0,0E0,0E0,0E0,0E0,0E0,0E0,0E0,0E0,0E0,0E0,0E0,0E0,0E0,0E0,0E0,0E0,0E0,0E0,0E0,0E0,0E0,0E0,0E0,0E0,0E0,0E0,0E0,0E0,0E0,0E0,0E0,0E0,0E0,0E0,0E0,0E0,0E0,0E0,0E0,0E0,0E0,0E0,0E0,0E0],"parents":[2147483647,0,0,1,1,2,2,3,3,4,4,5,5,6,6,7,7,8,8,9,9,10,10,11,11,12,12,13,13,14,14,15,15,16,16,17,17,18,18,19,19,20,20,21,21,22,22,23,23,24,24,25,25,26,26,27,27,28,28,29,29,30,30,31,31,32,32,33,33,34,34,35,35,36,36,37,37,38,38,39,39,40,40,41,41,42,42,43,43,44,44,45,45,46,46,47,47,48,48,49,49,50,50,51,51,52,52,53,53,54,54,55,55,56,56,57,57,58,58,59,59,60,60,61,61],"right_children":[2,4,6,8,10,12,14,16,18,20,22,24,26,28,30,32,34,36,38,40,42,44,46,48,50,52,54,56,58,60,62,64,66,68,70,72,74,76,78,80,82,84,86,88,90,92,94,96,98,100,102,104,106,108,110,112,114,116,118,120,122,124,-1,-1,-1,-1,-1,-1,-1,-1,-1,-1,-1,-1,-1,-1,-1,-1,-1,-1,-1,-1,-1,-1,-1,-1,-1,-1,-1,-1,-1,-1,-1,-1,-1,-1,-1,-1,-1,-1,-1,-1,-1,-1,-1,-1,-1,-1,-1,-1,-1,-1,-1,-1,-1,-1,-1,-1,-1,-1,-1,-1,-1,-1,-1],"split_conditions":[1.5940667E4,1.3558333E4,1.8488334E4,1.2161333E4,1.476E4,1.7122334E4,2.0252666E4,1.1309E4,5E0,8.660254E-1,8.660254E-1,8.660254E-1,9.659258E-1,1.9185E4,2.1802E4,1.0709E4,6E0,1.2910667E4,1.2840667E4,1.4174667E4,1.4098E4,1.534E4,1.7126E4,1.6524E4,1.8428E4,1.7712666E4,2.0102E4,1.854E4,1.9461E4,2.0986E4,2.2765334E4,1.0354667E4,6E0,1.1619E4,1.1769E4,1.3527E4,1.3943E4,1.1923E4,1.2614E4,1.3459E4,1.4058E4,1.4371E4,1.5112E4,1.4675E4,1.5261E4,1.534E4,1.5559E4,1.5909E4,1.6486E4,1.6524E4,1.6557666E4,1.7091E4,1.7753E4,1.7755334E4,1.7977E4,1.8783666E4,9.659258E-1,1.965E4,1.9742666E4,2.0325E4,2.1061E4,2.2263E4,3.9200604E2,-2.6777963E2,-2.4317448E2,-2.276503E2,-2.0524413E2,-2.0825945E2,-1.9127965E2,-1.7734007E2,-1.5565953E2,-1.6483858E2,-1.9066869E2,-1.2789508E2,-1.568179E2,-1.14573204E2,-1.4129399E2,-8.0367615E1,-1.0958937E2,-4.7380108E1,-7.941234E1,-1.7883957E1,-5.0824295E1,-9.4226974E1,-1.2976048E2,-6.860229E1,-1.06359146E2,8.451704E0,-2.196396E1,3.7105053E1,6.9526505E0,-4.8230297E1,-1.3898295E1,-8.653502E1,-4.764227E1,6.611434E1,3.392349E1,9.599062E1,6.3420387E1,9.193385E0,4.0616524E1,-4.806977E1,-1.7496874E0,1.252491E2,9.022464E1,1.5667113E2,1.2388303E2,5.618794E1,9.0195885E1,-1.3254465E1,2.9299528E1,1.813986E2,2.0693517E2,1.5851932E2,1.1975828E2,2.1262341E2,2.4160005E2,1.7585883E2,2.0719827E2,2.721721E2,2.37351E2,3.0697238E2,2.7380896E2,3.4489526E2,3.1609525E2],"split_indices":[8,8,8,8,8,8,8,8,3,12,12,12,12,8,8,5,3,8,8,8,8,8,7,8,7,8,7,6,7,8,8,8,3,5,8,6,6,7,7,6,6,6,6,6,6,8,8,6,6,8,8,6,6,8,8,8,12,8,8,7,7,7,0,0,0,0,0,0,0,0,0,0,0,0,0,0,0,0,0,0,0,0,0,0,0,0,0,0,0,0,0,0,0,0,0,0,0,0,0,0,0,0,0,0,0,0,0,0,0,0,0,0,0,0,0,0,0,0,0,0,0,0,0,0,0],"split_type":[0,0,0,0,0,0,0,0,0,0,0,0,0,0,0,0,0,0,0,0,0,0,0,0,0,0,0,0,0,0,0,0,0,0,0,0,0,0,0,0,0,0,0,0,0,0,0,0,0,0,0,0,0,0,0,0,0,0,0,0,0,0,0,0,0,0,0,0,0,0,0,0,0,0,0,0,0,0,0,0,0,0,0,0,0,0,0,0,0,0,0,0,0,0,0,0,0,0,0,0,0,0,0,0,0,0,0,0,0,0,0,0,0,0,0,0,0,0,0,0,0,0,0,0,0],"sum_hessian":[9.7009E4,5.8375E4,3.8634E4,2.3125E4,3.525E4,2.5749E4,1.2885E4,8.716E3,1.4409E4,1.7051E4,1.8199E4,1.3984E4,1.1765E4,8.714E3,4.171E3,3.033E3,5.683E3,5.253E3,9.156E3,1.2899E4,4.152E3,1.4009E4,4.19E3,1.0845E4,3.139E3,1.0211E4,1.554E3,4.169E3,4.545E3,3.037E3,1.134E3,1.131E3,1.902E3,3.169E3,2.514E3,2.715E3,2.538E3,4.032E3,5.124E3,6.234E3,6.665E3,1.832E3,2.32E3,6.938E3,7.071E3,3.302E3,8.88E2,5.874E3,4.971E3,2.663E3,4.76E2,4.895E3,5.316E3,1.432E3,1.22E2,1.34E3,2.829E3,2.212E3,2.333E3,1.892E3,1.145E3,7.55E2,3.79E2,3.85E2,7.46E2,1.145E3,7.57E2,1.331E3,1.838E3,1.094E3,1.42E3,2.276E3,4.39E2,1.558E3,9.8E2,1.338E3,2.694E3,2.026E3,3.098E3,1.86E3,4.374E3,1.899E3,4.766E3,7.67E2,1.065E3,1.276E3,1.044E3,2.116E3,4.822E3,2.019E3,5.052E3,1.774E3,1.528E3,5.17E2,3.71E2,2.113E3,3.761E3,1.857E3,3.114E3,1.464E3,1.199E3,2.11E2,2.65E2,1.647E3,3.248E3,1.795E3,3.521E3,7.81E2,6.51E2,7.7E1,4.5E1,7.91E2,5.49E2,2.371E3,4.58E2,1.28E3,9.32E2,1.186E3,1.147E3,9.03E2,9.89E2,5.66E2,5.79E2,4.76E2,2.79E2],"tree_param":{"num_deleted":"0","num_feature":"13","num_nodes":"125","size_leaf_vector":"1"}},{"base_weights":[1.0636589E-2,-1.5831344E3,2.392082E3,-2.9728174E3,-6.95757E2,1.4869435E3,4.200628E3,-3.8059053E3,-2.4551091E3,-1.2993324E3,-1.861545E2,9.440312E2,2.1321196E3,3.56003E3,5.537782E3,-4.39321E3,-3.4917449E3,-2.8776643E3,-2.1156096E3,-1.9115898E3,-1.0922437E3,-2.1286314E0,-8.006896E2,1.0853619E3,1.1213562E2,2.2648066E3,1.2593661E3,3.2040457E3,4.0224243E3,5.0904805E3,6.7301753E3,-4.783459E3,-4.156785E3,-3.7711458E3,-3.1381892E3,-3.1308076E3,-2.5769912E3,-2.427041E3,-1.8146465E3,-2.1713484E3,-1.6578796E3,-1.3513398E3,-8.6153455E2,-2.7232068E2,2.95763E2,-1.059885E3,-4.4256915E2,8.0906793E2,1.3769113E3,2.2373778E2,-7.381238E2,1.9760901E3,2.6097239E3,1.36241E3,4.8623856E1,3.5761265E3,2.880607E3,4.416624E3,3.7430967E3,4.828267E3,5.5191704E3,6.3598853E3,3.7245734E2,-2.5442537E2,-2.310367E2,-2.1667285E2,-1.9404086E2,-1.9672476E2,-1.8076904E2,-1.6848119E2,-1.4788205E2,-1.6474529E2,-1.4421446E2,-1.1558247E2,-1.4531917E2,-1.1130147E2,-1.375606E2,-7.5580986E1,-1.0706087E2,-9.355175E1,-1.2729156E2,-5.926904E1,-9.9182594E1,-4.5042828E1,-7.6238495E1,-1.7550175E1,-5.146454E1,6.5426345E0,-2.1682125E1,3.3795048E1,5.929643E0,-3.7464035E1,-7.493977E1,-9.509566E0,-5.5158382E1,6.133833E1,2.9304667E1,8.9201E1,5.748586E1,-6.120702E0,2.4407131E1,-6.1913525E1,-1.6389517E1,1.19906364E2,8.792227E1,1.5146867E2,1.186547E2,5.1491352E1,8.375469E1,-1.2600219E1,2.7866385E1,1.6706062E2,1.918583E2,1.5078612E2,1.1732979E2,2.1051756E2,2.3458154E2,1.7527635E2,2.0119592E2,2.5857852E2,2.2549547E2,2.9715524E2,2.6401697E2,3.344425E2,3.0698163E2],"categories":[],"categories_nodes":[],"categories_segments":[],"categories_sizes":[],"default_left":[0,0,0,0,0,0,0,0,0,0,0,0,0,0,0,0,0,0,0,0,0,0,0,0,0,0,0,0,0,0,0,0,0,0,0,0,0,0,0,0,0,0,0,0,0,0,0,0,0,0,0,0,0,0,0,0,0,0,0,0,0,0,0,0,0,0,0,0,0,0,0,0,0,0,0,0,0,0,0,0,0,0,0,0,0,0,0,0,0,0,0,0,0,0,0,0,0,0,0,0,0,0,0,0,0,0,0,0,0,0,0,0,0,0,0,0,0,0,0,0,0,0,0,0,0],"id":1,"left_children":[1,3,5,7,9,11,13,15,17,19,21,23,25,27,29,31,33,35,37,39,41,43,45,47,49,51,53,55,57,59,61,63,65,67,69,71,73,75,77,79,81,83,85,87,89,91,93,95,97,99,101,103,105,107,109,111,113,115,117,119,121,123,-1,-1,-1,-1,-1,-1,-1,-1,-1,-1,-1,-1,-1,-1,-1,-1,-1,-1,-1,-1,-1,-1,-1,-1,-1,-1,-1,-1,-1,-1,-1,-1,-1,-1,-1,-1,-1,-1,-1,-1,-1,-1,-1,-1,-1,-1,-1,-1,-1,-1,-1,-1,-1,-1,-1,-1,-1,-1,-1,-1,-1,-1,-1],"loss_changes":[3.6738023E11,7.198568E10,6.323865E10,9.802203E9,1.0958344E10,9.017545E9,1.1018142E10,1.5930163E9,2.0070482E9,2.0658831E9,2.1847905E9,1.6441272E9,1.3596836E9,1.4216479E9,2.1909258E9,2.6005094E8,5.496586E8,4.675625E8,7.252787E8,2.67989E8,7.275049E8,1.1967754E9,4.1278003E8,9.618217E8,1.9298323E8,1.0117857E9,1.9393485E8,5.828813E8,4.0045363E8,3.1485133E8,2.5479168E8,3.2974848E7,7.56736E7,6.6433024E7,9.512346E7,1.2755354E8,2.4342528E8,2.429911E8,3.8893978E8,2.2387098E8,3.192018E8,4.4707635E8,5.521331E8,5.0717875E8,4.7621254E8,3.508741E8,3.1172406E8,5.711373E8,5.357947E8,1.6452877E8,4.802765E7,5.067694E8,4.5456384E8,1.4729728E8,1.895093E7,1.2748186E8,1.8355405E8,6.902579E7,1.341993E8,1.8357043E8,8.464794E7,1.371136E7,0E0,0E0,0E0,0E0,0E0,0E0,0E0,0E0,0E0,0E0,0E0,0E0,0E0,0E0,0E0,0E0,0E0,0E0,0E0,0E0,0E0,0E0,0E0,0E0,0E0,0E0,0E0,0E0,0E0,0E0,0E0,0E0,0E0,0E0,0E0,0E0,0E0,0E0,0E0,0E0,0E0,0E0,0E0,0E0,0E0,0E0,0E0,0E0,0E0,0E0,0E0,0E0,0E0,0E0,0E0,0E0,0E0,0E0,0E0,0E0,0E0,0E0,0E0],"parents":[2147483647,0,0,1,1,2,2,3,3,4,4,5,5,6,6,7,7,8,8,9,9,10,10,11,11,12,12,13,13,14,14,15,15,16,16,17,17,18,18,19,19,20,20,21,21,22,22,23,23,24,24,25,25,26,26,27,27,28,28,29,29,30,30,31,31,32,32,33,33,34,34,35,35,36,36,37,37,38,38,39,39,40,40,41,41,42,42,43,43,44,44,45,45,46,46,47,47,48,48,49,49,50,50,51,51,52,52,53,53,54,54,55,55,56,56,57,57,58,58,59,59,60,60,61,61],"right_children":[2,4,6,8,10,12,14,16,18,20,22,24,26,28,30,32,34,36,38,40,42,44,46,48,50,52,54,56,58,60,62,64,66,68,70,72,74,76,78,80,82,84,86,88,90,92,94,96,98,100,102,104,106,108,110,112,114,116,118,120,122,124,-1,-1,-1,-1,-1,-1,-1,-1,-1,-1,-1,-1,-1,-1,-1,-1,-1,-1,-1,-1,-1,-1,-1,-1,-1,-1,-1,-1,-1,-1,-1,-1,-1,-1,-1,-1,-1,-1,-1,-1,-1,-1,-1,-1,-1,-1,-1,-1,-1,-1,-1,-1,-1,-1,-1,-1,-1,-1,-1,-1,-1,-1,-1],"split_conditions":[1.5940667E4,1.3528667E4,1.8488334E4,1.2161333E4,1.4683667E4,1.7122334E4,2.0252666E4,1.1309E4,6E0,5E0,8.660254E-1,9.659258E-1,9.659258E-1,1.9325334E4,2.1802E4,1.0794333E4,6E0,1.2910667E4,1.2910667E4,1.4071333E4,1.4125333E4,1.534E4,1.5390667E4,1.6492666E4,1.8714E4,1.7798666E4,2.0102E4,1.8656E4,1.9308E4,2.0986E4,2.2765334E4,1.0354667E4,6E0,1.1677E4,1.1769E4,4E0,1.377E4,1.2E1,1.2E1,1.45E4,1.4885E4,1.336E4,1.3913E4,1.4602E4,1.5309E4,1.578E4,1.6584E4,1.5909E4,1.6486E4,1.6397666E4,1.6593334E4,1.7123E4,1.7842E4,1.7666666E4,1.7977E4,1.8848E4,9.659258E-1,1.9742666E4,1.9835334E4,2.0325E4,2.0597E4,2.153E4,3.7245734E2,-2.5442537E2,-2.310367E2,-2.1667285E2,-1.9404086E2,-1.9672476E2,-1.8076904E2,-1.6848119E2,-1.4788205E2,-1.6474529E2,-1.4421446E2,-1.1558247E2,-1.4531917E2,-1.1130147E2,-1.375606E2,-7.5580986E1,-1.0706087E2,-9.355175E1,-1.2729156E2,-5.926904E1,-9.9182594E1,-4.5042828E1,-7.6238495E1,-1.7550175E1,-5.146454E1,6.5426345E0,-2.1682125E1,3.3795048E1,5.929643E0,-3.7464035E1,-7.493977E1,-9.509566E0,-5.5158382E1,6.133833E1,2.9304667E1,8.9201E1,5.748586E1,-6.120702E0,2.4407131E1,-6.1913525E1,-1.6389517E1,1.19906364E2,8.792227E1,1.5146867E2,1.186547E2,5.1491352E1,8.375469E1,-1.2600219E1,2.7866385E1,1.6706062E2,1.918583E2,1.5078612E2,1.1732979E2,2.1051756E2,2.3458154E2,1.7527635E2,2.0119592E2,2.5857852E2,2.2549547E2,2.9715524E2,2.6401697E2,3.344425E2,3.0698163E2],"split_indices":[8,8,8,8,8,8,8,8,3,3,12,12,12,8,8,8,3,8,8,8,8,8,8,8,7,8,7,7,7,8,8,8,3,5,8,3,6,3,3,6,6,6,6,6,6,6,6,6,6,8,8,6,6,8,8,8,12,8,8,7,7,7,0,0,0,0,0,0,0,0,0,0,0,0,0,0,0,0,0,0,0,0,0,0,0,0,0,0,0,0,0,0,0,0,0,0,0,0,0,0,0,0,0,0,0,0,0,0,0,0,0,0,0,0,0,0,0,0,0,0,0,0,0,0,0],"split_type":[0,0,0,0,0,0,0,0,0,0,0,0,0,0,0,0,0,0,0,0,0,0,0,0,0,0,0,0,0,0,0,0,0,0,0,0,0,0,0,0,0,0,0,0,0,0,0,0,0,0,0,0,0,0,0,0,0,0,0,0,0,0,0,0,0,0,0,0,0,0,0,0,0,0,0,0,0,0,0,0,0,0,0,0,0,0,0,0,0,0,0,0,0,0,0,0,0,0,0,0,0,0,0,0,0,0,0,0,0,0,0,0,0,0,0,0,0,0,0,0,0,0,0,0,0],"sum_hessian":[9.7009E4,5.8375E4,3.8634E4,2.2748E4,3.5627E4,2.5749E4,1.2885E4,8.716E3,1.4032E4,1.6309E4,1.9318E4,1.3984E4,1.1765E4,8.714E3,4.171E3,3.033E3,5.683E3,6.248E3,7.784E3,4.12E3,1.2189E4,1.4867E4,4.451E3,1.1953E4,2.031E3,1.0211E4,1.554E3,4.928E3,3.786E3,3.037E3,1.134E3,1.137E3,1.896E3,3.169E3,2.514E3,3.387E3,2.861E3,3.822E3,3.962E3,2.032E3,2.088E3,5.739E3,6.45E3,7.796E3,7.071E3,2.581E3,1.87E3,6.139E3,5.814E3,1.796E3,2.35E2,5.562E3,4.649E3,1.432E3,1.22E2,2.287E3,2.641E3,1.564E3,2.222E3,1.892E3,1.145E3,7.55E2,3.79E2,3.85E2,7.52E2,1.147E3,7.49E2,1.535E3,1.634E3,1.094E3,1.42E3,2.026E3,1.361E3,1.589E3,1.272E3,2.364E3,1.458E3,2.058E3,1.904E3,1.131E3,9.01E2,8.54E2,1.234E3,1.597E3,4.142E3,1.596E3,4.854E3,2.228E3,5.568E3,2.247E3,4.824E3,1.513E3,1.068E3,1.354E3,5.16E2,2.135E3,4.004E3,2.08E3,3.734E3,7.78E2,1.018E3,1.05E2,1.3E2,1.889E3,3.673E3,1.672E3,2.977E3,6.96E2,7.36E2,7.7E1,4.5E1,1.211E3,1.076E3,2.104E3,5.37E2,9.03E2,6.61E2,1.211E3,1.011E3,9.03E2,9.89E2,4.04E2,7.41E2,2.91E2,4.64E2],"tree_param":{"num_deleted":"0","num_feature":"13","num_nodes":"125","size_leaf_vector":"1"}},{"base_weights":[2.0396063E-2,-1.4567206E3,2.3465977E3,-2.755787E3,-5.711697E2,1.5116505E3,4.0689517E3,-3.511528E3,-2.203447E3,-1.0834269E3,-3.520308E1,1.0439535E3,2.1868115E3,3.5262278E3,5.456488E3,-4.123735E3,-3.2054038E3,-2.6932344E3,-1.9327437E3,-8.950205E2,-1.6785432E3,1.3829813E2,-6.1833057E2,1.2181449E3,4.3652945E2,2.3079917E3,1.3603434E3,3.1651948E3,3.993995E3,4.9860845E3,6.39456E3,-4.546839E3,-3.9115798E3,-3.493595E3,-2.8641423E3,-2.936873E3,-2.4398486E3,-2.238471E3,-1.6559897E3,-1.1611571E3,-6.1076086E2,-1.9448906E3,-1.3971597E3,-8.0757484E1,4.218883E2,-4.660157E2,-1.2164705E3,9.425495E2,1.5418158E3,5.36176E2,-4.232142E2,2.0730693E3,2.6430405E3,1.4580979E3,2.4583604E2,3.5322883E3,2.8731724E3,4.3165737E3,3.688019E3,4.7896294E3,5.3668423E3,6.0427397E3,3.5388348E2,-2.4173705E2,-2.1960953E2,-2.0366876E2,-1.8304903E2,-1.8243217E2,-1.6590878E2,-1.5444301E2,-1.3347815E2,-1.41787E2,-1.6682053E2,-1.0609627E2,-1.3409007E2,-9.475054E1,-1.2129701E2,-6.319824E1,-9.292153E1,-3.7346714E1,-6.663531E1,-9.370412E0,-3.9743496E1,-8.355532E1,-1.1727229E2,-5.629846E1,-9.384931E1,1.3751291E1,-1.3198806E1,3.99691E1,1.0859666E1,-3.6359776E1,-6.5768175E0,-7.779137E1,-4.5155968E1,6.650285E1,3.6796974E1,9.475091E1,6.468228E1,1.1896867E1,4.2963768E1,-4.089741E1,-1.5298656E0,1.24875206E2,9.254856E1,1.5426833E2,1.1953861E2,6.1203846E1,9.22885E1,-2.1407896E1,2.393305E1,1.661643E2,1.9217654E2,1.2832315E2,1.5410133E2,2.0399002E2,2.3137003E2,1.6873418E2,1.9624982E2,2.6245905E2,2.283531E2,2.8586923E2,2.5345403E2,3.115321E2,2.8505264E2],"categories":[],"categories_nodes":[],"categories_segments":[],"categories_sizes":[],"default_left":[0,0,0,0,0,0,0,0,0,0,0,0,0,0,0,0,0,0,0,0,0,0,0,0,0,0,0,0,0,0,0,0,0,0,0,0,0,0,0,0,0,0,0,0,0,0,0,0,0,0,0,0,0,0,0,0,0,0,0,0,0,0,0,0,0,0,0,0,0,0,0,0,0,0,0,0,0,0,0,0,0,0,0,0,0,0,0,0,0,0,0,0,0,0,0,0,0,0,0,0,0,0,0,0,0,0,0,0,0,0,0,0,0,0,0,0,0,0,0,0,0,0,0,0,0],"id":2,"left_children":[1,3,5,7,9,11,13,15,17,19,21,23,25,27,29,31,33,35,37,39,41,43,45,47,49,51,53,55,57,59,61,63,65,67,69,71,73,75,77,79,81,83,85,87,89,91,93,95,97,99,101,103,105,107,109,111,113,115,117,119,121,123,-1,-1,-1,-1,-1,-1,-1,-1,-1,-1,-1,-1,-1,-1,-1,-1,-1,-1,-1,-1,-1,-1,-1,-1,-1,-1,-1,-1,-1,-1,-1,-1,-1,-1,-1,-1,-1,-1,-1,-1,-1,-1,-1,-1,-1,-1,-1,-1,-1,-1,-1,-1,-1,-1,-1,-1,-1,-1,-1,-1,-1,-1,-1],"loss_changes":[3.3161806E11,6.885383E10,5.3428404E10,1.0119856E10,9.772119E9,7.900512E9,9.115976E9,1.906434E9,1.8536694E9,2.0390359E9,1.7599954E9,1.5640515E9,1.02251315E9,1.4604943E9,1.4724137E9,2.8839936E8,6.620119E8,3.007652E8,7.6058214E8,1.04517734E9,3.2517018E8,8.3290394E8,3.6285325E8,1.0235699E9,2.8268243E8,6.9740134E8,1.425815E8,5.181317E8,3.5875226E8,1.4447002E8,2.3001088E8,2.9210624E7,7.749222E7,8.852685E7,1.2879258E8,9.309184E7,1.8284544E8,2.715648E8,3.7422285E8,5.0629837E8,5.2105626E8,2.4228096E8,2.7518157E8,4.9320566E8,4.5132115E8,2.777941E8,8.462234E7,4.961326E8,4.6062592E8,2.845415E8,5.313284E7,4.906537E8,4.0292147E8,1.0715315E8,1.699566E7,1.289728E8,1.6824934E8,1.166848E8,1.3191782E8,1.3046989E8,5.0970624E7,1.3017088E7,0E0,0E0,0E0,0E0,0E0,0E0,0E0,0E0,0E0,0E0,0E0,0E0,0E0,0E0,0E0,0E0,0E0,0E0,0E0,0E0,0E0,0E0,0E0,0E0,0E0,0E0,0E0,0E0,0E0,0E0,0E0,0E0,0E0,0E0,0E0,0E0,0E0,0E0,0E0,0E0,0E0,0E0,0E0,0E0,0E0,0E0,0E0,0E0,0E0,0E0,0E0,0E0,0E0,0E0,0E0,0E0,0E0,0E0,0E0,0E0,0E0,0E0,0E0],"parents":[2147483647,0,0,1,1,2,2,3,3,4,4,5,5,6,6,7,7,8,8,9,9,10,10,11,11,12,12,13,13,14,14,15,15,16,16,17,17,18,18,19,19,20,20,21,21,22,22,23,23,24,24,25,25,26,26,27,27,28,28,29,29,30,30,31,31,32,32,33,33,34,34,35,35,36,36,37,37,38,38,39,39,40,40,41,41,42,42,43,43,44,44,45,45,46,46,47,47,48,48,49,49,50,50,51,51,52,52,53,53,54,54,55,55,56,56,57,57,58,58,59,59,60,60,61,61],"right_children":[2,4,6,8,10,12,14,16,18,20,22,24,26,28,30,32,34,36,38,40,42,44,46,48,50,52,54,56,58,60,62,64,66,68,70,72,74,76,78,80,82,84,86,88,90,92,94,96,98,100,102,104,106,108,110,112,114,116,118,120,122,124,-1,-1,-1,-1,-1,-1,-1,-1,-1,-1,-1,-1,-1,-1,-1,-1,-1,-1,-1,-1,-1,-1,-1,-1,-1,-1,-1,-1,-1,-1,-1,-1,-1,-1,-1,-1,-1,-1,-1,-1,-1,-1,-1,-1,-1,-1,-1,-1,-1,-1,-1,-1,-1,-1,-1,-1,-1,-1,-1,-1,-1,-1,-1],"split_conditions":[1.6047333E4,1.3650667E4,1.8601334E4,1.2336667E4,1.4912667E4,1.7350666E4,2.0522E4,1.1386E4,5E0,8.660254E-1,8.660254E-1,8.660254E-1,9.659258E-1,1.9484334E4,2.1802E4,1.0709E4,6E0,1.3013667E4,1.3013667E4,1.4326E4,1.4302667E4,1.5536E4,1.7277E4,1.6697666E4,1.8906E4,1.8027334E4,2.0205E4,1.8714E4,1.9711E4,2.1207666E4,2.2765334E4,1.0354667E4,6E0,1.1828E4,1.1922E4,1.3588E4,1.3827E4,1.2118E4,1.288E4,1.3588E4,1.4243E4,1.4756E4,1.5431E4,1.491E4,1.5502E4,1.5484E4,1.5559E4,1.6019E4,1.6758E4,1.6662666E4,1.6837666E4,1.7348E4,1.8029E4,1.8027334E4,7E0,1.9041E4,1.8969666E4,1.9938E4,1.9938E4,2.0598E4,2.1061E4,2.2263E4,3.5388348E2,-2.4173705E2,-2.1960953E2,-2.0366876E2,-1.8304903E2,-1.8243217E2,-1.6590878E2,-1.5444301E2,-1.3347815E2,-1.41787E2,-1.6682053E2,-1.0609627E2,-1.3409007E2,-9.475054E1,-1.2129701E2,-6.319824E1,-9.292153E1,-3.7346714E1,-6.663531E1,-9.370412E0,-3.9743496E1,-8.355532E1,-1.1727229E2,-5.629846E1,-9.384931E1,1.3751291E1,-1.3198806E1,3.99691E1,1.0859666E1,-3.6359776E1,-6.5768175E0,-7.779137E1,-4.5155968E1,6.650285E1,3.6796974E1,9.475091E1,6.468228E1,1.1896867E1,4.2963768E1,-4.089741E1,-1.5298656E0,1.24875206E2,9.254856E1,1.5426833E2,1.1953861E2,6.1203846E1,9.22885E1,-2.1407896E1,2.393305E1,1.661643E2,1.9217654E2,1.2832315E2,1.5410133E2,2.0399002E2,2.3137003E2,1.6873418E2,1.9624982E2,2.6245905E2,2.283531E2,2.8586923E2,2.5345403E2,3.115321E2,2.8505264E2],"split_indices":[8,8,8,8,8,8,8,8,3,12,12,12,12,8,8,5,3,8,8,8,8,8,7,8,7,8,7,7,7,8,8,8,3,5,8,6,6,7,6,6,6,6,6,6,6,8,8,6,6,8,8,6,6,8,1,8,8,8,8,6,7,7,0,0,0,0,0,0,0,0,0,0,0,0,0,0,0,0,0,0,0,0,0,0,0,0,0,0,0,0,0,0,0,0,0,0,0,0,0,0,0,0,0,0,0,0,0,0,0,0,0,0,0,0,0,0,0,0,0,0,0,0,0,0,0],"split_type":[0,0,0,0,0,0,0,0,0,0,0,0,0,0,0,0,0,0,0,0,0,0,0,0,0,0,0,0,0,0,0,0,0,0,0,0,0,0,0,0,0,0,0,0,0,0,0,0,0,0,0,0,0,0,0,0,0,0,0,0,0,0,0,0,0,0,0,0,0,0,0,0,0,0,0,0,0,0,0,0,0,0,0,0,0,0,0,0,0,0,0,0,0,0,0,0,0,0,0,0,0,0,0,0,0,0,0,0,0,0,0,0,0,0,0,0,0,0,0,0,0,0,0,0,0],"sum_hessian":[9.7009E4,5.9853E4,3.7156E4,2.4261E4,3.5592E4,2.5026E4,1.213E4,1.0242E4,1.4019E4,1.8198E4,1.7394E4,1.4786E4,1.024E4,8.722E3,3.408E3,3.41E3,6.832E3,4.987E3,9.032E3,1.3824E4,4.374E3,1.3406E4,3.988E3,1.149E4,3.296E3,8.929E3,1.311E3,4.927E3,3.795E3,2.274E3,1.134E3,1.132E3,2.278E3,3.699E3,3.133E3,2.537E3,2.45E3,4.288E3,4.744E3,7.138E3,6.686E3,2.244E3,2.13E3,7.564E3,5.842E3,3.18E3,8.08E2,6.208E3,5.282E3,2.954E3,3.42E2,5.253E3,3.676E3,1.205E3,1.06E2,2.178E3,2.749E3,1.841E3,1.954E3,1.509E3,7.65E2,7.55E2,3.79E2,3.85E2,7.47E2,1.375E3,9.03E2,1.953E3,1.746E3,1.447E3,1.686E3,2.031E3,5.06E2,1.063E3,1.387E3,1.518E3,2.77E3,1.618E3,3.126E3,2.092E3,5.046E3,2.027E3,4.659E3,1.336E3,9.08E2,1.363E3,7.67E2,2.571E3,4.993E3,2.053E3,3.789E3,1.785E3,1.395E3,3.86E2,4.22E2,2.157E3,4.051E3,2.177E3,3.105E3,1.537E3,1.417E3,1.7E2,1.72E2,1.801E3,3.452E3,1.331E3,2.345E3,7.54E2,4.51E2,2.7E1,7.9E1,1.31E3,8.68E2,1.119E3,1.63E3,1.053E3,7.88E2,8.48E2,1.106E3,4.85E2,1.024E3,3.43E2,4.22E2,4.76E2,2.79E2],"tree_param":{"num_deleted":"0","num_feature":"13","num_nodes":"125","size_leaf_vector":"1"}},{"base_weights":[3.305023E-2,-1.4898014E3,2.0722522E3,-2.7552593E3,-7.270271E2,1.2363032E3,3.7210942E3,-3.519555E3,-2.3309153E3,-1.2546561E3,-2.514352E2,7.14963E2,1.8038539E3,3.1575552E3,5.000592E3,-4.0229897E3,-3.2475396E3,-2.7026284E3,-2.0166033E3,-1.8100281E3,-1.0582335E3,-8.687053E1,-7.986443E2,8.429525E2,-4.63614E1,1.9275085E3,1.0123936E3,2.7811638E3,3.5653767E3,4.500155E3,5.8716646E3,-4.440144E3,-3.8553281E3,-3.564368E3,-3.020608E3,-3.0106528E3,-2.4786606E3,-2.3517104E3,-1.7710918E3,-2.0159396E3,-1.5521301E3,-1.2953523E3,-8.390332E2,-3.3964056E2,1.5280608E2,-6.56765E2,-1.3243892E3,5.890094E2,1.0846702E3,9.366836E1,-6.993115E2,1.6286586E3,2.2203342E3,6.925859E2,1.2870918E3,3.2568035E3,2.5527703E3,3.8670015E3,3.277861E3,4.783419E3,4.2464663E3,5.582163E3,3.3623587E2,-2.2968147E2,-2.1337772E2,-2.0038737E2,-1.8161472E2,-1.8556216E2,-1.7159981E2,-1.6301686E2,-1.4359784E2,-1.4567891E2,-1.7369017E2,-1.1850454E2,-1.4552084E2,-1.0927337E2,-1.3298969E2,-7.460897E1,-1.0257653E2,-8.226893E1,-1.1287327E2,-5.4399532E1,-9.244279E1,-4.3980133E1,-7.327102E1,-2.2150608E1,-5.1528576E1,2.5494485E0,-2.5624374E1,2.658747E1,-5.913356E-1,-4.528029E1,-1.4827594E1,-8.725967E1,-5.331477E1,4.8849144E1,1.8760841E1,7.393154E1,4.3342697E1,6.534302E1,1.4999498E0,-5.401319E1,-8.92101E0,1.0228894E2,7.073998E1,1.3269106E2,1.0207023E2,4.7037685E1,4.714091E0,6.969194E1,1.3968988E1,1.533838E2,1.7797008E2,1.334423E2,9.8295494E1,1.8291376E2,2.074718E2,1.4815129E2,1.7541891E2,2.2922806E2,2.5824863E2,1.9648314E2,2.2733716E2,2.6878903E2,2.9872403E2],"categories":[],"categories_nodes":[],"categories_segments":[],"categories_sizes":[],"default_left":[0,0,0,0,0,0,0,0,0,0,0,0,0,0,0,0,0,0,0,0,0,0,0,0,0,0,0,0,0,0,0,0,0,0,0,0,0,0,0,0,0,0,0,0,0,0,0,0,0,0,0,0,0,0,0,0,0,0,0,0,0,0,0,0,0,0,0,0,0,0,0,0,0,0,0,0,0,0,0,0,0,0,0,0,0,0,0,0,0,0,0,0,0,0,0,0,0,0,0,0,0,0,0,0,0,0,0,0,0,0,0,0,0,0,0,0,0,0,0,0,0,0,0,0,0],"id":3,"left_children":[1,3,5,7,9,11,13,15,17,19,21,23,25,27,29,31,33,35,37,39,41,43,45,47,49,51,53,55,57,59,61,63,65,67,69,71,73,75,77,79,81,83,85,87,89,91,93,95,97,99,101,103,105,107,109,111,113,115,117,119,121,123,-1,-1,-1,-1,-1,-1,-1,-1,-1,-1,-1,-1,-1,-1,-1,-1,-1,-1,-1,-1,-1,-1,-1,-1,-1,-1,-1,-1,-1,-1,-1,-1,-1,-1,-1,-1,-1,-1,-1,-1,-1,-1,-1,-1,-1,-1,-1,-1,-1,-1,-1,-1,-1,-1,-1,-1,-1,-1,-1,-1,-1,-1,-1],"loss_changes":[2.994985E11,5.447335E10,5.5921852E10,6.8752343E9,8.835897E9,7.9657615E9,9.826517E9,1.02427034E9,1.5893299E9,1.8190828E9,1.6677701E9,1.3677286E9,1.2596675E9,1.445118E9,1.7922212E9,1.6843162E8,3.4318746E8,4.2378035E8,6.046515E8,2.2840525E8,6.399908E8,8.627548E8,3.1853466E8,7.369339E8,1.848505E8,9.719521E8,1.5232E8,5.276836E8,3.8156288E8,1.7040589E8,3.3759232E8,3.69664E5,5.003059E7,2.7103232E7,9.308979E7,1.0798694E8,1.630249E8,1.5429018E8,3.3132032E8,2.129664E8,2.651694E8,4.175012E8,4.859141E8,4.6800102E8,4.5605155E8,3.0216243E8,9.686272E7,4.8586176E8,5.2688486E8,1.28570664E8,7.064846E7,4.8960717E8,4.311122E8,1.1988291E8,1.0040397E8,8.047821E7,2.2213837E8,1.1528192E8,1.5899238E8,7.086285E7,1.161687E8,6.0186624E7,0E0,0E0,0E0,0E0,0E0,0E0,0E0,0E0,0E0,0E0,0E0,0E0,0E0,0E0,0E0,0E0,0E0,0E0,0E0,0E0,0E0,0E0,0E0,0E0,0E0,0E0,0E0,0E0,0E0,0E0,0E0,0E0,0E0,0E0,0E0,0E0,0E0,0E0,0E0,0E0,0E0,0E0,0E0,0E0,0E0,0E0,0E0,0E0,0E0,0E0,0E0,0E0,0E0,0E0,0E0,0E0,0E0,0E0,0E0,0E0,0E0,0E0,0E0],"parents":[2147483647,0,0,1,1,2,2,3,3,4,4,5,5,6,6,7,7,8,8,9,9,10,10,11,11,12,12,13,13,14,14,15,15,16,16,17,17,18,18,19,19,20,20,21,21,22,22,23,23,24,24,25,25,26,26,27,27,28,28,29,29,30,30,31,31,32,32,33,33,34,34,35,35,36,36,37,37,38,38,39,39,40,40,41,41,42,42,43,43,44,44,45,45,46,46,47,47,48,48,49,49,50,50,51,51,52,52,53,53,54,54,55,55,56,56,57,57,58,58,59,59,60,60,61,61],"right_children":[2,4,6,8,10,12,14,16,18,20,22,24,26,28,30,32,34,36,38,40,42,44,46,48,50,52,54,56,58,60,62,64,66,68,70,72,74,76,78,80,82,84,86,88,90,92,94,96,98,100,102,104,106,108,110,112,114,116,118,120,122,124,-1,-1,-1,-1,-1,-1,-1,-1,-1,-1,-1,-1,-1,-1,-1,-1,-1,-1,-1,-1,-1,-1,-1,-1,-1,-1,-1,-1,-1,-1,-1,-1,-1,-1,-1,-1,-1,-1,-1,-1,-1,-1,-1,-1,-1,-1,-1,-1,-1,-1,-1,-1,-1,-1,-1,-1,-1,-1,-1,-1,-1,-1,-1],"split_conditions":[1.5807333E4,1.3397667E4,1.8383334E4,1.2017333E4,1.4602333E4,1.6947E4,2.0252666E4,1.1226667E4,6E0,5E0,8.660254E-1,9.659258E-1,9.659258E-1,1.9185E4,2.1464334E4,1.0521E4,5E0,1.2615333E4,1.2691E4,1.4044E4,1.4044E4,1.5203333E4,1.6982E4,1.6311333E4,1.8274E4,1.7581334E4,1.7502E4,1.848E4,1.9461E4,2.0463E4,2.2765334E4,1.0354667E4,6E0,1.1567E4,1.1595667E4,1.3142E4,1.3943E4,1.2E1,1.1E1,1.4192E4,1.4809E4,1.325E4,1.3971E4,1.4528E4,1.5141E4,1.5269667E4,1.5203333E4,1.578E4,1.6305E4,1.5626E4,1.6557666E4,1.694E4,1.7542E4,1.8226E4,1.9999E4,1.8721334E4,9.659258E-1,1.965E4,1.965E4,2.0829E4,2.0829E4,2.2208666E4,3.3623587E2,-2.2968147E2,-2.1337772E2,-2.0038737E2,-1.8161472E2,-1.8556216E2,-1.7159981E2,-1.6301686E2,-1.4359784E2,-1.4567891E2,-1.7369017E2,-1.1850454E2,-1.4552084E2,-1.0927337E2,-1.3298969E2,-7.460897E1,-1.0257653E2,-8.226893E1,-1.1287327E2,-5.4399532E1,-9.244279E1,-4.3980133E1,-7.327102E1,-2.2150608E1,-5.1528576E1,2.5494485E0,-2.5624374E1,2.658747E1,-5.913356E-1,-4.528029E1,-1.4827594E1,-8.725967E1,-5.331477E1,4.8849144E1,1.8760841E1,7.393154E1,4.3342697E1,6.534302E1,1.4999498E0,-5.401319E1,-8.92101E0,1.0228894E2,7.073998E1,1.3269106E2,1.0207023E2,4.7037685E1,4.714091E0,6.969194E1,1.3968988E1,1.533838E2,1.7797008E2,1.334423E2,9.8295494E1,1.8291376E2,2.074718E2,1.4815129E2,1.7541891E2,2.2922806E2,2.5824863E2,1.9648314E2,2.2733716E2,2.6878903E2,2.9872403E2],"split_indices":[8,8,8,8,8,8,8,8,3,3,12,12,12,8,8,5,3,8,8,8,8,8,7,8,7,8,8,6,7,7,8,8,3,5,8,6,6,3,3,6,6,6,6,6,6,8,8,6,6,5,8,6,6,6,7,8,12,8,8,8,8,8,0,0,0,0,0,0,0,0,0,0,0,0,0,0,0,0,0,0,0,0,0,0,0,0,0,0,0,0,0,0,0,0,0,0,0,0,0,0,0,0,0,0,0,0,0,0,0,0,0,0,0,0,0,0,0,0,0,0,0,0,0,0,0],"split_type":[0,0,0,0,0,0,0,0,0,0,0,0,0,0,0,0,0,0,0,0,0,0,0,0,0,0,0,0,0,0,0,0,0,0,0,0,0,0,0,0,0,0,0,0,0,0,0,0,0,0,0,0,0,0,0,0,0,0,0,0,0,0,0,0,0,0,0,0,0,0,0,0,0,0,0,0,0,0,0,0,0,0,0,0,0,0,0,0,0,0,0,0,0,0,0,0,0,0,0,0,0,0,0,0,0,0,0,0,0,0,0,0,0,0,0,0,0,0,0,0,0,0,0,0,0],"sum_hessian":[9.7009E4,5.6435E4,4.0574E4,2.1223E4,3.5212E4,2.6925E4,1.3649E4,7.574E3,1.3649E4,1.6692E4,1.852E4,1.4035E4,1.289E4,9.478E3,4.171E3,2.652E3,4.922E3,6.25E3,7.399E3,4.359E3,1.2333E4,1.4239E4,4.281E3,1.2015E4,2.02E3,1.1147E4,1.743E3,4.933E3,4.545E3,2.653E3,1.518E3,7.53E2,1.899E3,2.048E3,2.874E3,2.626E3,3.624E3,3.125E3,4.274E3,2.42E3,1.939E3,5.922E3,6.411E3,6.93E3,7.309E3,3.373E3,9.08E2,5.861E3,6.154E3,1.664E3,3.56E2,5.52E3,5.627E3,8.07E2,9.36E2,1.596E3,3.337E3,2.212E3,2.333E3,1.245E3,1.408E3,1.139E3,3.79E2,3.85E2,3.68E2,1.118E3,7.81E2,9.58E2,1.09E3,1.092E3,1.782E3,2.177E3,4.49E2,2.901E3,7.23E2,2.035E3,1.09E3,2.146E3,2.128E3,9.58E2,1.462E3,7.58E2,1.181E3,1.721E3,4.201E3,2.091E3,4.32E3,2.126E3,4.804E3,2.213E3,5.096E3,1.994E3,1.379E3,3.43E2,5.65E2,2.081E3,3.78E3,2.189E3,3.965E3,8.2E1,1.582E3,2.05E2,1.51E2,1.868E3,3.652E3,1.64E3,3.987E3,5.7E2,2.37E2,8.46E2,9E1,9.89E2,6.07E2,2.783E3,5.54E2,1.28E3,9.32E2,9.92E2,1.341E3,8.27E2,4.18E2,6.92E2,7.16E2,7.56E2,3.83E2],"tree_param":{"num_deleted":"0","num_feature":"13","num_nodes":"125","size_leaf_vector":"1"}},{"base_weights":[3.753027E-2,-1.3581407E3,2.0521929E3,-2.488711E3,-5.54059E2,1.2925411E3,3.6388674E3,-3.2181309E3,-2.0213489E3,-1.00939954E3,-9.873933E1,8.2260913E2,1.866797E3,3.1558528E3,4.9271616E3,-3.7232732E3,-2.9334106E3,-2.465632E3,-1.7731836E3,-8.3716113E2,-1.5533362E3,2.1203196E1,-8.0152325E2,9.813329E2,2.704292E2,1.9812379E3,1.1090192E3,2.8034685E3,3.5695833E3,4.502261E3,5.774493E3,-4.108126E3,-3.5290403E3,-3.2659883E3,-2.7005674E3,-2.7054453E3,-2.2161155E3,-2.0372357E3,-1.480863E3,-1.06534E3,-6.0206006E2,-1.4193646E3,-2.0029619E3,-1.7924747E2,2.6628354E2,-7.0105414E2,-1.5048143E3,7.1401636E2,1.2228127E3,3.8895258E2,-3.7274542E2,1.7270398E3,2.2834739E3,1.2020718E3,8.693041E1,3.130129E3,2.5212134E3,3.8675986E3,3.3026787E3,4.89591E3,4.3414478E3,5.4577925E3,3.194683E2,-2.1822716E2,-1.9856134E2,-1.8419556E2,-1.643373E2,-1.7086226E2,-1.5711137E2,-1.4558524E2,-1.26992546E2,-1.310893E2,-1.549659E2,-9.956605E1,-1.2414127E2,-8.7039635E1,-1.10424095E2,-5.4466946E1,-8.353273E1,-3.3954453E1,-6.1832058E1,-1.1329359E1,-3.9179607E1,-8.3562935E1,-5.7453976E1,-1.1515792E2,-8.392851E1,1.0132142E1,-1.7103378E1,3.1764097E1,4.1051497E0,-5.0659092E1,-2.3706308E1,-9.0818596E1,-5.7798725E1,5.5897804E1,2.6826166E1,8.096166E1,5.2486725E1,7.104713E0,3.3932735E1,-4.617764E1,-3.6657588E0,1.0488031E2,7.5889854E1,1.336673E2,1.0344407E2,4.8603176E1,7.844874E1,-1.2957033E1,2.8939615E1,1.4742545E2,1.702265E2,1.3196094E2,1.0216499E2,1.808096E2,2.0750098E2,1.5127367E2,1.7767636E2,2.3264258E2,2.6268585E2,2.0598198E2,2.3526622E2,2.8826636E2,2.6264682E2],"categories":[],"categories_nodes":[],"categories_segments":[],"categories_sizes":[],"default_left":[0,0,0,0,0,0,0,0,0,0,0,0,0,0,0,0,0,0,0,0,0,0,0,0,0,0,0,0,0,0,0,0,0,0,0,0,0,0,0,0,0,0,0,0,0,0,0,0,0,0,0,0,0,0,0,0,0,0,0,0,0,0,0,0,0,0,0,0,0,0,0,0,0,0,0,0,0,0,0,0,0,0,0,0,0,0,0,0,0,0,0,0,0,0,0,0,0,0,0,0,0,0,0,0,0,0,0,0,0,0,0,0,0,0,0,0,0,0,0,0,0,0,0,0,0],"id":4,"left_children":[1,3,5,7,9,11,13,15,17,19,21,23,25,27,29,31,33,35,37,39,41,43,45,47,49,51,53,55,57,59,61,63,65,67,69,71,73,75,77,79,81,83,85,87,89,91,93,95,97,99,101,103,105,107,109,111,113,115,117,119,121,123,-1,-1,-1,-1,-1,-1,-1,-1,-1,-1,-1,-1,-1,-1,-1,-1,-1,-1,-1,-1,-1,-1,-1,-1,-1,-1,-1,-1,-1,-1,-1,-1,-1,-1,-1,-1,-1,-1,-1,-1,-1,-1,-1,-1,-1,-1,-1,-1,-1,-1,-1,-1,-1,-1,-1,-1,-1,-1,-1,-1,-1,-1,-1],"loss_changes":[2.7038836E11,5.306654E10,4.6562853E10,8.264483E9,7.072811E9,7.0494003E9,7.7677363E9,1.3515244E9,1.6263127E9,1.596715E9,1.4379828E9,1.2592691E9,1.0174669E9,1.3167002E9,1.2013486E9,2.4047616E8,4.606894E8,3.110236E8,7.297249E8,6.944379E8,2.4418918E8,7.1596845E8,1.7467405E8,7.196508E8,2.4484722E8,7.807713E8,1.468375E8,4.456448E8,3.1987302E8,1.2276122E8,1.8614682E8,2.2616064E7,7.322214E7,3.591168E7,1.1381555E8,8.074445E7,1.5105843E8,2.4921702E8,3.332352E8,4.3413043E8,4.349586E8,2.1342618E8,8.75753E7,4.9856173E8,4.455768E8,1.5378842E8,3.1592256E7,3.793915E8,4.005714E8,1.937817E8,8.239649E7,4.2731008E8,3.8459392E8,1.1797222E8,2.227848E7,1.0339328E8,1.437184E8,1.2486656E8,1.4313267E8,3.2258048E7,1.1168768E8,1.7344512E7,0E0,0E0,0E0,0E0,0E0,0E0,0E0,0E0,0E0,0E0,0E0,0E0,0E0,0E0,0E0,0E0,0E0,0E0,0E0,0E0,0E0,0E0,0E0,0E0,0E0,0E0,0E0,0E0,0E0,0E0,0E0,0E0,0E0,0E0,0E0,0E0,0E0,0E0,0E0,0E0,0E0,0E0,0E0,0E0,0E0,0E0,0E0,0E0,0E0,0E0,0E0,0E0,0E0,0E0,0E0,0E0,0E0,0E0,0E0,0E0,0E0,0E0,0E0],"parents":[2147483647,0,0,1,1,2,2,3,3,4,4,5,5,6,6,7,7,8,8,9,9,10,10,11,11,12,12,13,13,14,14,15,15,16,16,17,17,18,18,19,19,20,20,21,21,22,22,23,23,24,24,25,25,26,26,27,27,28,28,29,29,30,30,31,31,32,32,33,33,34,34,35,35,36,36,37,37,38,38,39,39,40,40,41,41,42,42,43,43,44,44,45,45,46,46,47,47,48,48,49,49,50,50,51,51,52,52,53,53,54,54,55,55,56,56,57,57,58,58,59,59,60,60,61,61],"right_children":[2,4,6,8,10,12,14,16,18,20,22,24,26,28,30,32,34,36,38,40,42,44,46,48,50,52,54,56,58,60,62,64,66,68,70,72,74,76,78,80,82,84,86,88,90,92,94,96,98,100,102,104,106,108,110,112,114,116,118,120,122,124,-1,-1,-1,-1,-1,-1,-1,-1,-1,-1,-1,-1,-1,-1,-1,-1,-1,-1,-1,-1,-1,-1,-1,-1,-1,-1,-1,-1,-1,-1,-1,-1,-1,-1,-1,-1,-1,-1,-1,-1,-1,-1,-1,-1,-1,-1,-1,-1,-1,-1,-1,-1,-1,-1,-1,-1,-1,-1,-1,-1,-1,-1,-1],"split_conditions":[1.5940667E4,1.3650667E4,1.8547334E4,1.2256333E4,1.4838333E4,1.7160666E4,2.0522E4,1.1386E4,5E0,8.660254E-1,9.659258E-1,8.660254E-1,9.659258E-1,1.9401666E4,2.1802E4,1.0794333E4,5E0,1.2978E4,1.3050667E4,1.4275667E4,1.6076E4,1.5434333E4,1.7588E4,1.6462666E4,1.8428E4,1.7840334E4,2.0102E4,1.8714E4,1.9625E4,2.0102E4,2.2765334E4,1.0354667E4,6E0,1.173E4,1.1821E4,1.3588E4,1.3943E4,1.2118E4,1.288E4,1.3588E4,1.4217E4,1.4225333E4,1.4397E4,1.4782E4,1.5406E4,1.5249E4,1.5588E4,1.5806E4,1.6364E4,1.6524E4,1.6462666E4,1.72E4,1.7894E4,1.7883E4,1.7977E4,1.8969666E4,9.659258E-1,1.9835334E4,1.9938E4,2.0986E4,2.1207666E4,2.153E4,3.194683E2,-2.1822716E2,-1.9856134E2,-1.8419556E2,-1.643373E2,-1.7086226E2,-1.5711137E2,-1.4558524E2,-1.26992546E2,-1.310893E2,-1.549659E2,-9.956605E1,-1.2414127E2,-8.7039635E1,-1.10424095E2,-5.4466946E1,-8.353273E1,-3.3954453E1,-6.1832058E1,-1.1329359E1,-3.9179607E1,-8.3562935E1,-5.7453976E1,-1.1515792E2,-8.392851E1,1.0132142E1,-1.7103378E1,3.1764097E1,4.1051497E0,-5.0659092E1,-2.3706308E1,-9.0818596E1,-5.7798725E1,5.5897804E1,2.6826166E1,8.096166E1,5.2486725E1,7.104713E0,3.3932735E1,-4.617764E1,-3.6657588E0,1.0488031E2,7.5889854E1,1.336673E2,1.0344407E2,4.8603176E1,7.844874E1,-1.2957033E1,2.8939615E1,1.4742545E2,1.702265E2,1.3196094E2,1.0216499E2,1.808096E2,2.0750098E2,1.5127367E2,1.7767636E2,2.3264258E2,2.6268585E2,2.0598198E2,2.3526622E2,2.8826636E2,2.6264682E2],"split_indices":[8,8,8,8,8,8,8,8,3,12,12,12,12,8,8,8,3,8,8,8,7,8,7,8,7,8,7,7,7,7,8,8,3,5,8,6,6,7,6,6,6,8,8,6,6,8,8,6,6,8,8,6,6,8,8,8,12,8,8,8,8,7,0,0,0,0,0,0,0,0,0,0,0,0,0,0,0,0,0,0,0,0,0,0,0,0,0,0,0,0,0,0,0,0,0,0,0,0,0,0,0,0,0,0,0,0,0,0,0,0,0,0,0,0,0,0,0,0,0,0,0,0,0,0,0],"split_type":[0,0,0,0,0,0,0,0,0,0,0,0,0,0,0,0,0,0,0,0,0,0,0,0,0,0,0,0,0,0,0,0,0,0,0,0,0,0,0,0,0,0,0,0,0,0,0,0,0,0,0,0,0,0,0,0,0,0,0,0,0,0,0,0,0,0,0,0,0,0,0,0,0,0,0,0,0,0,0,0,0,0,0,0,0,0,0,0,0,0,0,0,0,0,0,0,0,0,0,0,0,0,0,0,0,0,0,0,0,0,0,0,0,0,0,0,0,0,0,0,0,0,0,0,0],"sum_hessian":[9.7009E4,5.8375E4,3.8634E4,2.4261E4,3.4114E4,2.6127E4,1.2507E4,9.472E3,1.4789E4,1.7056E4,1.7058E4,1.437E4,1.1757E4,9.099E3,3.408E3,3.41E3,6.062E3,5.297E3,9.492E3,1.2956E4,4.1E3,1.4572E4,2.486E3,1.1161E4,3.209E3,1.0213E4,1.544E3,4.918E3,4.181E3,2.274E3,1.134E3,1.137E3,2.273E3,2.491E3,3.571E3,2.696E3,2.601E3,4.984E3,4.508E3,6.573E3,6.383E3,3.162E3,9.38E2,8.016E3,6.556E3,2.177E3,3.09E2,5.299E3,5.862E3,2.71E3,4.99E2,5.551E3,4.662E3,1.415E3,1.29E2,2.275E3,2.643E3,1.969E3,2.212E3,6.51E2,1.623E3,7.55E2,3.79E2,3.85E2,7.52E2,1.378E3,8.95E2,1.109E3,1.382E3,1.536E3,2.035E3,2.23E3,4.66E2,1.416E3,1.185E3,1.829E3,3.155E3,1.474E3,3.034E3,2.021E3,4.552E3,2.081E3,4.302E3,1.634E3,1.528E3,4.84E2,4.54E2,2.396E3,5.62E3,2.182E3,4.374E3,9.15E2,1.262E3,1.61E2,1.48E2,1.616E3,3.683E3,1.779E3,4.083E3,1.464E3,1.246E3,1.75E2,3.24E2,2E3,3.551E3,1.651E3,3.011E3,8.72E2,5.43E2,7.6E1,5.3E1,1.376E3,8.99E2,2.116E3,5.27E2,1.049E3,9.2E2,1.057E3,1.155E3,3.96E2,2.55E2,1.016E3,6.07E2,2.91E2,4.64E2],"tree_param":{"num_deleted":"0","num_feature":"13","num_nodes":"125","size_leaf_vector":"1"}},{"base_weights":[4.5502417E-2,-1.2498848E3,2.0134838E3,-2.3225E3,-4.589071E2,1.3297987E3,3.5633655E3,-2.9948853E3,-1.8407769E3,-8.7080414E2,-1.2890139E-1,8.9498975E2,1.9142328E3,3.1205212E3,4.776227E3,-3.4969539E3,-2.7153794E3,-2.2679011E3,-1.6083611E3,-7.082513E2,-1.3872189E3,1.1517694E2,-6.7785474E2,1.0113905E3,2.1109822E2,2.055095E3,1.3725615E3,2.799888E3,3.5049482E3,4.4497925E3,5.744566E3,-3.8272578E3,-3.2756013E3,-2.9701628E3,-2.4199197E3,-2.460528E3,-1.9867316E3,-1.875277E3,-1.3684313E3,-9.311305E2,-4.6824216E2,-1.5837808E3,-1.098721E3,-4.8124157E1,3.6608423E2,3.7589648E2,-7.5278235E2,7.84789E2,1.3062959E3,3.031315E2,-4.9670212E2,1.8298722E3,2.3681643E3,1.1234218E3,1.6601465E3,3.169758E3,2.56317E3,3.7514165E3,3.21236E3,4.247651E3,4.8503335E3,2.703416E2,3.035369E2,-2.0734404E2,-1.8572952E2,-1.7107341E2,-1.5273268E2,-1.5571378E2,-1.4072096E2,-1.1018655E2,-1.27769646E2,-1.18371475E2,-1.3982317E2,-8.611098E1,-1.1591768E2,-7.687966E1,-1.0138388E2,-5.17154E1,-7.866566E1,-2.7981134E1,-5.4524006E1,-5.2040467E0,-3.2120388E1,-6.564573E1,-9.527492E1,-3.9630127E1,-7.379998E1,1.4844838E1,-1.07567835E1,3.634871E1,8.104627E0,4.2253387E1,-1.2874648E1,-3.3181103E1,-7.538027E1,5.6637886E1,2.9712835E1,8.347707E1,5.4430145E1,2.4945455E0,3.0736547E1,-5.6398994E1,-1.1855247E1,1.0928682E2,8.171254E1,1.3672218E2,1.0631978E2,6.51114E1,1.973443E1,9.120608E1,5.0246E1,1.4766434E2,1.7683746E2,1.3311993E2,1.0259151E2,1.7840816E2,2.0579533E2,1.6664279E2,1.3339992E2,2.2562651E2,1.9908623E2,2.5980505E2,2.2854716E2],"categories":[],"categories_nodes":[],"categories_segments":[],"categories_sizes":[],"default_left":[0,0,0,0,0,0,0,0,0,0,0,0,0,0,0,0,0,0,0,0,0,0,0,0,0,0,0,0,0,0,0,0,0,0,0,0,0,0,0,0,0,0,0,0,0,0,0,0,0,0,0,0,0,0,0,0,0,0,0,0,0,0,0,0,0,0,0,0,0,0,0,0,0,0,0,0,0,0,0,0,0,0,0,0,0,0,0,0,0,0,0,0,0,0,0,0,0,0,0,0,0,0,0,0,0,0,0,0,0,0,0,0,0,0,0,0,0,0,0,0,0,0,0],"id":5,"left_children":[1,3,5,7,9,11,13,15,17,19,21,23,25,27,29,31,33,35,37,39,41,43,45,47,49,51,53,55,57,59,61,63,65,67,69,71,73,75,77,79,81,83,85,87,89,91,93,95,97,99,101,103,105,107,109,111,113,115,117,119,121,-1,-1,-1,-1,-1,-1,-1,-1,-1,-1,-1,-1,-1,-1,-1,-1,-1,-1,-1,-1,-1,-1,-1,-1,-1,-1,-1,-1,-1,-1,-1,-1,-1,-1,-1,-1,-1,-1,-1,-1,-1,-1,-1,-1,-1,-1,-1,-1,-1,-1,-1,-1,-1,-1,-1,-1,-1,-1,-1,-1,-1,-1],"loss_changes":[2.4414342E11,5.0779955E10,3.9367983E10,8.222941E9,6.5101834E9,6.5507E9,6.093619E9,1.4782956E9,1.4658519E9,1.5228662E9,1.2737756E9,1.1769139E9,8.364155E8,1.01743E9,9.3538714E8,2.6441728E8,5.0583142E8,2.7750605E8,6.115881E8,7.382487E8,2.446546E8,5.707776E8,1.874066E8,8.433869E8,1.4033437E8,6.110126E8,1.6099277E8,3.901604E8,2.6096845E8,1.638359E8,5.1226624E7,3.91168E7,6.287155E7,7.32672E7,8.694784E7,9.001984E7,1.8240717E8,2.303703E8,3.4434867E8,4.2320026E8,4.2176845E8,2.2249984E8,2.0255795E8,4.8633987E8,4.041952E8,4.717016E7,1.4793485E8,4.7323443E8,4.3223142E8,1.502922E8,4.0374276E7,3.500708E8,3.1723315E8,1.5858483E8,1.1130214E8,1.3024666E8,1.3554483E8,1.2217344E8,1.051095E8,8.923955E7,4.937728E7,0E0,0E0,0E0,0E0,0E0,0E0,0E0,0E0,0E0,0E0,0E0,0E0,0E0,0E0,0E0,0E0,0E0,0E0,0E0,0E0,0E0,0E0,0E0,0E0,0E0,0E0,0E0,0E0,0E0,0E0,0E0,0E0,0E0,0E0,0E0,0E0,0E0,0E0,0E0,0E0,0E0,0E0,0E0,0E0,0E0,0E0,0E0,0E0,0E0,0E0,0E0,0E0,0E0,0E0,0E0,0E0,0E0,0E0,0E0,0E0,0E0,0E0],"parents":[2147483647,0,0,1,1,2,2,3,3,4,4,5,5,6,6,7,7,8,8,9,9,10,10,11,11,12,12,13,13,14,14,15,15,16,16,17,17,18,18,19,19,20,20,21,21,22,22,23,23,24,24,25,25,26,26,27,27,28,28,29,29,30,30,31,31,32,32,33,33,34,34,35,35,36,36,37,37,38,38,39,39,40,40,41,41,42,42,43,43,44,44,45,45,46,46,47,47,48,48,49,49,50,50,51,51,52,52,53,53,54,54,55,55,56,56,57,57,58,58,59,59,60,60],"right_children":[2,4,6,8,10,12,14,16,18,20,22,24,26,28,30,32,34,36,38,40,42,44,46,48,50,52,54,56,58,60,62,64,66,68,70,72,74,76,78,80,82,84,86,88,90,92,94,96,98,100,102,104,106,108,110,112,114,116,118,120,122,-1,-1,-1,-1,-1,-1,-1,-1,-1,-1,-1,-1,-1,-1,-1,-1,-1,-1,-1,-1,-1,-1,-1,-1,-1,-1,-1,-1,-1,-1,-1,-1,-1,-1,-1,-1,-1,-1,-1,-1,-1,-1,-1,-1,-1,-1,-1,-1,-1,-1,-1,-1,-1,-1,-1,-1,-1,-1,-1,-1,-1,-1],"split_conditions":[1.6047333E4,1.3737667E4,1.8721334E4,1.2374333E4,1.4979E4,1.7350666E4,2.0666E4,1.146E4,5E0,8.660254E-1,9.659258E-1,9.659258E-1,8.660254E-1,1.9563334E4,2.2208666E4,1.0852E4,6E0,1.3196667E4,1.3086333E4,1.4397E4,1.4473E4,1.5612E4,1.4937E4,1.6729E4,1.8906E4,1.8077334E4,1.7977E4,1.8966E4,1.9999E4,2.1464334E4,2.2765334E4,1.0354667E4,6E0,4E0,5E0,1.3739E4,1.4137E4,1.2252E4,1.3027E4,1.3682E4,1.4346E4,1.4809E4,1.5406E4,1.4989E4,1.5578E4,1.6555E4,1.7893E4,1.6075E4,1.6758E4,1.6697666E4,1.6593334E4,1.7348E4,1.8124E4,1.8655E4,1.9304E4,1.9112666E4,9.659258E-1,2.0131666E4,9.659258E-1,2.0743E4,2.1268E4,2.703416E2,3.035369E2,-2.0734404E2,-1.8572952E2,-1.7107341E2,-1.5273268E2,-1.5571378E2,-1.4072096E2,-1.1018655E2,-1.27769646E2,-1.18371475E2,-1.3982317E2,-8.611098E1,-1.1591768E2,-7.687966E1,-1.0138388E2,-5.17154E1,-7.866566E1,-2.7981134E1,-5.4524006E1,-5.2040467E0,-3.2120388E1,-6.564573E1,-9.527492E1,-3.9630127E1,-7.379998E1,1.4844838E1,-1.07567835E1,3.634871E1,8.104627E0,4.2253387E1,-1.2874648E1,-3.3181103E1,-7.538027E1,5.6637886E1,2.9712835E1,8.347707E1,5.4430145E1,2.4945455E0,3.0736547E1,-5.6398994E1,-1.1855247E1,1.0928682E2,8.171254E1,1.3672218E2,1.0631978E2,6.51114E1,1.973443E1,9.120608E1,5.0246E1,1.4766434E2,1.7683746E2,1.3311993E2,1.0259151E2,1.7840816E2,2.0579533E2,1.6664279E2,1.3339992E2,2.2562651E2,1.9908623E2,2.5980505E2,2.2854716E2],"split_indices":[8,8,8,8,8,8,8,8,3,12,12,12,12,8,8,5,3,8,8,8,8,8,5,8,7,8,8,6,7,8,8,8,3,3,4,6,6,6,6,6,6,6,6,6,6,7,7,6,6,8,8,6,6,6,6,8,12,8,12,7,7,0,0,0,0,0,0,0,0,0,0,0,0,0,0,0,0,0,0,0,0,0,0,0,0,0,0,0,0,0,0,0,0,0,0,0,0,0,0,0,0,0,0,0,0,0,0,0,0,0,0,0,0,0,0,0,0,0,0,0,0,0,0],"split_type":[0,0,0,0,0,0,0,0,0,0,0,0,0,0,0,0,0,0,0,0,0,0,0,0,0,0,0,0,0,0,0,0,0,0,0,0,0,0,0,0,0,0,0,0,0,0,0,0,0,0,0,0,0,0,0,0,0,0,0,0,0,0,0,0,0,0,0,0,0,0,0,0,0,0,0,0,0,0,0,0,0,0,0,0,0,0,0,0,0,0,0,0,0,0,0,0,0,0,0,0,0,0,0,0,0,0,0,0,0,0,0,0,0,0,0,0,0,0,0,0,0,0,0],"sum_hessian":[9.7009E4,5.9853E4,3.7156E4,2.5403E4,3.445E4,2.5784E4,1.1372E4,1.0601E4,1.4802E4,1.8152E4,1.6298E4,1.4786E4,1.0998E4,8.333E3,3.039E3,3.787E3,6.814E3,5.213E3,9.589E3,1.3808E4,4.344E3,1.3929E4,2.369E3,1.2635E4,2.151E3,8.726E3,2.272E3,4.548E3,3.785E3,2.277E3,7.62E2,1.513E3,2.274E3,3.654E3,3.16E3,3.089E3,2.124E3,4.536E3,5.053E3,7.158E3,6.65E3,2.581E3,1.763E3,8.438E3,5.491E3,1.57E2,2.212E3,7.147E3,5.488E3,1.904E3,2.47E2,5.079E3,3.647E3,1.22E3,1.052E3,1.77E3,2.778E3,2.048E3,1.737E3,1.521E3,7.56E2,3.83E2,3.79E2,3.85E2,1.128E3,1.361E3,9.13E2,1.888E3,1.766E3,1.224E3,1.936E3,2.425E3,6.64E2,1.185E3,9.39E2,1.414E3,3.122E3,1.923E3,3.13E3,2.15E3,5.008E3,2.152E3,4.498E3,1.404E3,1.177E3,9.75E2,7.88E2,2.752E3,5.686E3,1.982E3,3.509E3,9E1,6.7E1,1.98E3,2.32E2,2.527E3,4.62E3,2.054E3,3.434E3,1.051E3,8.53E2,7.1E1,1.76E2,1.798E3,3.281E3,1.446E3,2.201E3,9.79E2,2.41E2,8.4E2,2.12E2,1.119E3,6.51E2,2.323E3,4.55E2,1.37E3,6.78E2,1.418E3,3.19E2,7.54E2,7.67E2,3.3E2,4.26E2],"tree_param":{"num_deleted":"0","num_feature":"13","num_nodes":"123","size_leaf_vector":"1"}},{"base_weights":[5.4973423E-2,-1.2988438E3,1.7500435E3,-2.3652607E3,-6.41978E2,9.9310126E2,3.1093691E3,-3.0223123E3,-2.00046E3,-1.0758451E3,-2.3430171E2,5.571662E2,1.4548969E3,2.6437432E3,4.29289E3,-3.5090227E3,-2.8135193E3,-2.3196375E3,-1.730571E3,-8.763274E2,-1.4886248E3,-9.0207306E1,-7.115751E2,6.655672E2,-9.247068E1,1.5633777E3,7.750953E2,2.3074675E3,3.0310698E3,3.864661E3,5.0382676E3,-3.812596E3,-3.3540098E3,-3.0070493E3,-2.5519556E3,-2.5879521E3,-2.1245527E3,-2.0409657E3,-1.5291755E3,-1.1157098E3,-6.9888525E2,-1.0156749E3,-1.608865E3,-3.0221613E2,1.0860139E2,-5.6434753E2,-1.1426044E3,4.729854E2,8.818564E2,3.4065025E1,-7.6620953E2,1.3460531E3,1.8336207E3,8.681953E2,2.4983113E0,2.6516338E3,2.0459156E3,3.3396267E3,2.8157668E3,4.1795693E3,3.6866428E3,4.60842E3,5.4592466E3,-1.9308281E2,-1.7208928E2,-1.7987245E2,-1.5992432E2,-1.585457E2,-1.4523778E2,-1.387324E2,-1.199647E2,-1.23989296E2,-1.4765932E2,-9.8870865E1,-1.1941953E2,-8.734365E1,-1.1017169E2,-6.3988575E1,-8.909048E1,-3.8896717E1,-6.566213E1,-1.5578956E1,-4.250796E1,-6.61901E1,-4.3849957E1,-9.1895035E1,-7.132246E1,2.1235373E0,-2.3660147E1,2.3984398E1,-1.7025101E0,-3.7816116E1,-1.2680167E1,-7.5205154E1,-4.5443436E1,4.2182003E1,1.4484482E1,6.332624E1,3.4055286E1,5.925012E1,-1.8991677E0,-3.0302023E1,-7.822967E1,8.598923E1,5.8141712E1,1.10683655E2,8.181094E1,3.191749E1,5.834676E1,-1.7253767E1,2.2204596E1,1.460498E2,1.2467238E2,1.0455099E2,4.850653E1,1.5973233E2,1.8474663E2,1.2988652E2,1.5383154E2,2.0050488E2,2.2741544E2,1.7142757E2,1.9727824E2,2.4642857E2,2.1867033E2,2.5693295E2,2.8839996E2],"categories":[],"categories_nodes":[],"categories_segments":[],"categories_sizes":[],"default_left":[0,0,0,0,0,0,0,0,0,0,0,0,0,0,0,0,0,0,0,0,0,0,0,0,0,0,0,0,0,0,0,0,0,0,0,0,0,0,0,0,0,0,0,0,0,0,0,0,0,0,0,0,0,0,0,0,0,0,0,0,0,0,0,0,0,0,0,0,0,0,0,0,0,0,0,0,0,0,0,0,0,0,0,0,0,0,0,0,0,0,0,0,0,0,0,0,0,0,0,0,0,0,0,0,0,0,0,0,0,0,0,0,0,0,0,0,0,0,0,0,0,0,0,0,0,0,0],"id":6,"left_children":[1,3,5,7,9,11,13,15,17,19,21,23,25,27,29,31,33,35,37,39,41,43,45,47,49,51,53,55,57,59,61,63,65,67,69,71,73,75,77,79,81,83,85,87,89,91,93,95,97,99,101,103,105,107,109,111,113,115,117,119,121,123,125,-1,-1,-1,-1,-1,-1,-1,-1,-1,-1,-1,-1,-1,-1,-1,-1,-1,-1,-1,-1,-1,-1,-1,-1,-1,-1,-1,-1,-1,-1,-1,-1,-1,-1,-1,-1,-1,-1,-1,-1,-1,-1,-1,-1,-1,-1,-1,-1,-1,-1,-1,-1,-1,-1,-1,-1,-1,-1,-1,-1,-1,-1,-1,-1],"loss_changes":[2.2051162E11,3.9003316E10,4.252159E10,5.0812027E9,6.094764E9,5.3436457E9,8.1346724E9,7.599145E8,1.1718287E9,1.3734769E9,1.2218153E9,9.6187494E8,9.4944256E8,1.3750764E9,1.312211E9,9.403392E7,2.609152E8,3.2170394E8,4.594688E8,4.7733658E8,3.0761062E8,5.7528506E8,2.608078E8,4.8713523E8,1.6660854E8,6.503772E8,1.2774336E8,5.0623283E8,3.1797658E8,1.3336986E8,2.4971264E8,5.34528E5,4.5700096E7,4.1814016E7,7.02761E7,9.64608E7,1.3599846E8,1.3514547E8,2.8075008E8,3.185756E8,3.7863245E8,4.6055424E7,1.7845248E8,3.892983E8,3.7289818E8,1.8312813E8,8.7184E7,4.205724E8,4.2478746E8,1.3653654E8,3.85656E7,4.201472E8,3.678935E8,1.0808755E8,2.9622614E7,9.715098E7,1.5489331E8,9.225216E7,1.5746662E8,4.11904E7,1.0034586E8,3.5477504E7,4.578509E7,0E0,0E0,0E0,0E0,0E0,0E0,0E0,0E0,0E0,0E0,0E0,0E0,0E0,0E0,0E0,0E0,0E0,0E0,0E0,0E0,0E0,0E0,0E0,0E0,0E0,0E0,0E0,0E0,0E0,0E0,0E0,0E0,0E0,0E0,0E0,0E0,0E0,0E0,0E0,0E0,0E0,0E0,0E0,0E0,0E0,0E0,0E0,0E0,0E0,0E0,0E0,0E0,0E0,0E0,0E0,0E0,0E0,0E0,0E0,0E0,0E0,0E0,0E0,0E0],"parents":[2147483647,0,0,1,1,2,2,3,3,4,4,5,5,6,6,7,7,8,8,9,9,10,10,11,11,12,12,13,13,14,14,15,15,16,16,17,17,18,18,19,19,20,20,21,21,22,22,23,23,24,24,25,25,26,26,27,27,28,28,29,29,30,30,31,31,32,32,33,33,34,34,35,35,36,36,37,37,38,38,39,39,40,40,41,41,42,42,43,43,44,44,45,45,46,46,47,47,48,48,49,49,50,50,51,51,52,52,53,53,54,54,55,55,56,56,57,57,58,58,59,59,60,60,61,61,62,62],"right_children":[2,4,6,8,10,12,14,16,18,20,22,24,26,28,30,32,34,36,38,40,42,44,46,48,50,52,54,56,58,60,62,64,66,68,70,72,74,76,78,80,82,84,86,88,90,92,94,96,98,100,102,104,106,108,110,112,114,116,118,120,122,124,126,-1,-1,-1,-1,-1,-1,-1,-1,-1,-1,-1,-1,-1,-1,-1,-1,-1,-1,-1,-1,-1,-1,-1,-1,-1,-1,-1,-1,-1,-1,-1,-1,-1,-1,-1,-1,-1,-1,-1,-1,-1,-1,-1,-1,-1,-1,-1,-1,-1,-1,-1,-1,-1,-1,-1,-1,-1,-1,-1,-1,-1,-1,-1,-1],"split_conditions":[1.5757E4,1.3397667E4,1.8226E4,1.2017333E4,1.4602333E4,1.6837666E4,2.0252666E4,1.1055E4,6E0,7.0710677E-1,8.660254E-1,9.659258E-1,9.659258E-1,1.9112666E4,2.1464334E4,1.0594667E4,6E0,1.2615333E4,1.2655E4,1.3962E4,-2.5881904E-1,1.5175E4,1.6798E4,1.6282E4,1.8274E4,1.7543E4,1.9625E4,1.8322E4,1.9171E4,2.0102E4,2.2278E4,8E0,5E0,1.1526667E4,1.1595667E4,1.3027E4,1.3653E4,1.1878E4,1.1E1,1.3324E4,1.3827E4,1.3878E4,1.3935333E4,1.4552E4,1.5063E4,1.5269667E4,1.5175E4,1.5701E4,1.6216E4,1.5626E4,1.7014E4,1.6828E4,1.7542E4,1.7502E4,1.7755334E4,1.7983E4,1.9808E4,1.9742666E4,1.9742666E4,2.0829E4,2.0829E4,2.1268E4,2.2765334E4,-1.9308281E2,-1.7208928E2,-1.7987245E2,-1.5992432E2,-1.585457E2,-1.4523778E2,-1.387324E2,-1.199647E2,-1.23989296E2,-1.4765932E2,-9.8870865E1,-1.1941953E2,-8.734365E1,-1.1017169E2,-6.3988575E1,-8.909048E1,-3.8896717E1,-6.566213E1,-1.5578956E1,-4.250796E1,-6.61901E1,-4.3849957E1,-9.1895035E1,-7.132246E1,2.1235373E0,-2.3660147E1,2.3984398E1,-1.7025101E0,-3.7816116E1,-1.2680167E1,-7.5205154E1,-4.5443436E1,4.2182003E1,1.4484482E1,6.332624E1,3.4055286E1,5.925012E1,-1.8991677E0,-3.0302023E1,-7.822967E1,8.598923E1,5.8141712E1,1.10683655E2,8.181094E1,3.191749E1,5.834676E1,-1.7253767E1,2.2204596E1,1.460498E2,1.2467238E2,1.0455099E2,4.850653E1,1.5973233E2,1.8474663E2,1.2988652E2,1.5383154E2,2.0050488E2,2.2741544E2,1.7142757E2,1.9727824E2,2.4642857E2,2.1867033E2,2.5693295E2,2.8839996E2],"split_indices":[8,8,8,8,8,8,8,5,3,12,12,12,12,8,8,8,3,8,8,8,11,8,7,8,7,8,7,7,7,7,5,3,3,8,8,6,6,6,3,6,6,8,8,6,6,8,8,6,6,5,5,6,6,8,8,6,6,8,8,8,8,7,8,0,0,0,0,0,0,0,0,0,0,0,0,0,0,0,0,0,0,0,0,0,0,0,0,0,0,0,0,0,0,0,0,0,0,0,0,0,0,0,0,0,0,0,0,0,0,0,0,0,0,0,0,0,0,0,0,0,0,0,0,0,0,0,0],"split_type":[0,0,0,0,0,0,0,0,0,0,0,0,0,0,0,0,0,0,0,0,0,0,0,0,0,0,0,0,0,0,0,0,0,0,0,0,0,0,0,0,0,0,0,0,0,0,0,0,0,0,0,0,0,0,0,0,0,0,0,0,0,0,0,0,0,0,0,0,0,0,0,0,0,0,0,0,0,0,0,0,0,0,0,0,0,0,0,0,0,0,0,0,0,0,0,0,0,0,0,0,0,0,0,0,0,0,0,0,0,0,0,0,0,0,0,0,0,0,0,0,0,0,0,0,0,0,0],"sum_hessian":[9.7009E4,5.5681E4,4.1328E4,2.1223E4,3.4458E4,2.6547E4,1.4781E4,7.574E3,1.3649E4,1.6692E4,1.7766E4,1.3657E4,1.289E4,1.061E4,4.171E3,2.269E3,5.305E3,6.25E3,7.399E3,1.1255E4,5.437E3,1.3647E4,4.119E3,1.1704E4,1.953E3,1.1115E4,1.775E3,5.683E3,4.927E3,2.653E3,1.518E3,7.59E2,1.51E3,3.043E3,2.262E3,2.626E3,3.624E3,2.908E3,4.491E3,4.789E3,6.466E3,1.104E3,4.333E3,6.604E3,7.043E3,3.072E3,1.047E3,6.193E3,5.511E3,1.645E3,3.08E2,6.164E3,4.951E3,1.584E3,1.91E2,2.45E3,3.233E3,2.019E3,2.908E3,9.5E2,1.703E3,7.57E2,7.61E2,6.62E2,9.7E1,5.8E2,9.3E2,1.158E3,1.885E3,9.13E2,1.349E3,2.032E3,5.94E2,2.332E3,1.292E3,1.039E3,1.869E3,2.263E3,2.228E3,1.769E3,3.02E3,1.817E3,4.649E3,3.4E2,7.64E2,1.917E3,2.416E3,2.19E3,4.414E3,1.955E3,5.088E3,1.898E3,1.174E3,4.09E2,6.38E2,2.048E3,4.145E3,1.888E3,3.623E3,9.6E1,1.549E3,2.58E2,5E1,2.025E3,4.139E3,1.689E3,3.262E3,8.97E2,6.87E2,1.07E2,8.4E1,9E2,1.55E3,3.102E3,1.31E2,1.441E3,5.78E2,1.59E3,1.318E3,6.59E2,2.91E2,8.6E2,8.43E2,3.12E2,4.45E2,3.82E2,3.79E2],"tree_param":{"num_deleted":"0","num_feature":"13","num_nodes":"127","size_leaf_vector":"1"}},{"base_weights":[5.9219953E-2,-1.1950131E3,1.7174183E3,-2.2184387E3,-5.561843E2,1.0436104E3,3.0643464E3,-2.7843174E3,-1.8189907E3,-9.9423096E2,-1.7859236E2,6.239021E2,1.5140967E3,2.6292007E3,4.1496274E3,-3.2830955E3,-2.578506E3,-2.1822795E3,-1.6066589E3,-8.3887634E2,-1.4687814E3,-7.419559E1,-7.873771E2,7.618799E2,1.4412683E2,1.6473496E3,1.017911E3,2.3402637E3,2.9976196E3,3.803916E3,4.9570986E3,-3.625001E3,-3.145685E3,-2.7905798E3,-2.31151E3,-2.415273E3,-2.0113416E3,-1.8750306E3,-1.4222236E3,-1.0580973E3,-6.682815E2,-1.339348E3,-1.8466625E3,-3.0153815E2,1.1726608E2,-1.0005842E3,-5.5760956E2,5.4906067E2,9.656118E2,2.664478E2,-4.6565222E2,1.4108606E3,1.8923423E3,1.0840375E3,1.1488665E2,2.752815E3,2.1554602E3,3.3228586E3,2.7944446E3,3.6004878E3,4.070059E3,4.683405E3,2.738023E2,-1.8391547E2,-1.6261795E2,-1.6763911E2,-1.5103503E2,-1.4715678E2,-1.335157E2,-1.26564674E2,-1.0892842E2,-1.1617639E2,-1.4100114E2,-9.45886E1,-1.1729833E2,-7.819579E1,-1.0124347E2,-5.471631E1,-7.962961E1,-3.5670994E1,-6.1754486E1,-1.42961855E1,-4.0465435E1,-7.817809E1,-5.4734924E1,-1.0791144E2,-8.0809204E1,5.4676247E-1,-2.402195E1,2.2299711E1,-1.27632E0,-3.055989E0,-5.4745808E1,2.2301056E1,-3.3405224E1,4.3975048E1,1.8503435E1,6.43113E1,3.86842E1,1.9448814E0,2.4672298E1,-4.237254E1,-7.125188E0,8.80277E1,6.1397827E1,1.1296789E2,8.68041E1,4.2576553E1,6.8153694E1,-6.4776053E0,2.8379744E1,1.2929498E2,1.5489143E2,9.5523155E1,1.1951406E2,1.5801675E2,1.8005331E2,1.4409879E2,1.1316644E2,2.030156E2,1.7124759E2,2.1662425E2,1.9032487E2,2.4274023E2,2.1883257E2],"categories":[],"categories_nodes":[],"categories_segments":[],"categories_sizes":[],"default_left":[0,0,0,0,0,0,0,0,0,0,0,0,0,0,0,0,0,0,0,0,0,0,0,0,0,0,0,0,0,0,0,0,0,0,0,0,0,0,0,0,0,0,0,0,0,0,0,0,0,0,0,0,0,0,0,0,0,0,0,0,0,0,0,0,0,0,0,0,0,0,0,0,0,0,0,0,0,0,0,0,0,0,0,0,0,0,0,0,0,0,0,0,0,0,0,0,0,0,0,0,0,0,0,0,0,0,0,0,0,0,0,0,0,0,0,0,0,0,0,0,0,0,0,0,0],"id":7,"left_children":[1,3,5,7,9,11,13,15,17,19,21,23,25,27,29,31,33,35,37,39,41,43,45,47,49,51,53,55,57,59,61,63,65,67,69,71,73,75,77,79,81,83,85,87,89,91,93,95,97,99,101,103,105,107,109,111,113,115,117,119,121,123,-1,-1,-1,-1,-1,-1,-1,-1,-1,-1,-1,-1,-1,-1,-1,-1,-1,-1,-1,-1,-1,-1,-1,-1,-1,-1,-1,-1,-1,-1,-1,-1,-1,-1,-1,-1,-1,-1,-1,-1,-1,-1,-1,-1,-1,-1,-1,-1,-1,-1,-1,-1,-1,-1,-1,-1,-1,-1,-1,-1,-1,-1,-1],"loss_changes":[1.991023E11,3.739838E10,3.6124467E10,4.964188E9,5.8254776E9,5.2388434E9,6.2573363E9,9.251717E8,9.907978E8,1.2008305E9,1.2022144E9,9.283881E8,8.2546074E8,1.0018038E9,1.0410844E9,1.1323802E8,3.5837133E8,1.8440397E8,4.001915E8,4.5876326E8,1.941463E8,7.029591E8,1.3509018E8,4.717691E8,2.3388528E8,5.685985E8,1.5817702E8,3.993641E8,2.6574438E8,1.2951962E8,1.3556122E8,3.014656E6,3.9051264E7,5.7931776E7,7.799194E7,6.793728E7,1.05472E8,1.5122944E8,2.6796646E8,3.2702208E8,3.724836E8,1.6274022E8,6.997274E7,4.1272787E8,4.115335E8,1.2710477E8,1.4834413E8,3.1492352E8,3.413842E8,1.3484798E8,6.452912E7,3.1898214E8,2.736517E8,1.590871E8,2.0213548E7,8.649114E7,2.0691558E8,6.0739584E7,1.1286323E8,1.0862182E8,6.27712E7,1.8185216E7,0E0,0E0,0E0,0E0,0E0,0E0,0E0,0E0,0E0,0E0,0E0,0E0,0E0,0E0,0E0,0E0,0E0,0E0,0E0,0E0,0E0,0E0,0E0,0E0,0E0,0E0,0E0,0E0,0E0,0E0,0E0,0E0,0E0,0E0,0E0,0E0,0E0,0E0,0E0,0E0,0E0,0E0,0E0,0E0,0E0,0E0,0E0,0E0,0E0,0E0,0E0,0E0,0E0,0E0,0E0,0E0,0E0,0E0,0E0,0E0,0E0,0E0,0E0],"parents":[2147483647,0,0,1,1,2,2,3,3,4,4,5,5,6,6,7,7,8,8,9,9,10,10,11,11,12,12,13,13,14,14,15,15,16,16,17,17,18,18,19,19,20,20,21,21,22,22,23,23,24,24,25,25,26,26,27,27,28,28,29,29,30,30,31,31,32,32,33,33,34,34,35,35,36,36,37,37,38,38,39,39,40,40,41,41,42,42,43,43,44,44,45,45,46,46,47,47,48,48,49,49,50,50,51,51,52,52,53,53,54,54,55,55,56,56,57,57,58,58,59,59,60,60,61,61],"right_children":[2,4,6,8,10,12,14,16,18,20,22,24,26,28,30,32,34,36,38,40,42,44,46,48,50,52,54,56,58,60,62,64,66,68,70,72,74,76,78,80,82,84,86,88,90,92,94,96,98,100,102,104,106,108,110,112,114,116,118,120,122,124,-1,-1,-1,-1,-1,-1,-1,-1,-1,-1,-1,-1,-1,-1,-1,-1,-1,-1,-1,-1,-1,-1,-1,-1,-1,-1,-1,-1,-1,-1,-1,-1,-1,-1,-1,-1,-1,-1,-1,-1,-1,-1,-1,-1,-1,-1,-1,-1,-1,-1,-1,-1,-1,-1,-1,-1,-1,-1,-1,-1,-1,-1,-1],"split_conditions":[1.5859333E4,1.3463333E4,1.8434334E4,1.2209333E4,1.4628E4,1.7026E4,2.0371666E4,1.1226667E4,5E0,8.660254E-1,9.659258E-1,8.660254E-1,8.660254E-1,1.9325334E4,2.1802E4,1.0521E4,6E0,1.2765667E4,1.2765667E4,1.4017667E4,1.5834E4,1.5203333E4,1.5249E4,1.6366E4,1.8274E4,1.7666666E4,1.9902E4,1.854E4,1.9241E4,2.0986E4,2.2839E4,8E0,5E0,1.1619E4,1.1713E4,1.336E4,1.4001E4,1.2073E4,1.2652E4,1.3392E4,1.3885E4,1.4044E4,1.4125333E4,1.465E4,1.5191E4,1.4549E4,1.5189E4,1.5806E4,1.6364E4,1.6366E4,1.6462666E4,1.6979E4,1.7587E4,1.7666666E4,1.7977E4,1.8848E4,1.8906E4,1.9835334E4,9.659258E-1,2.033E4,2.1061E4,2.2263E4,2.738023E2,-1.8391547E2,-1.6261795E2,-1.6763911E2,-1.5103503E2,-1.4715678E2,-1.335157E2,-1.26564674E2,-1.0892842E2,-1.1617639E2,-1.4100114E2,-9.45886E1,-1.1729833E2,-7.819579E1,-1.0124347E2,-5.471631E1,-7.962961E1,-3.5670994E1,-6.1754486E1,-1.42961855E1,-4.0465435E1,-7.817809E1,-5.4734924E1,-1.0791144E2,-8.0809204E1,5.4676247E-1,-2.402195E1,2.2299711E1,-1.27632E0,-3.055989E0,-5.4745808E1,2.2301056E1,-3.3405224E1,4.3975048E1,1.8503435E1,6.43113E1,3.86842E1,1.9448814E0,2.4672298E1,-4.237254E1,-7.125188E0,8.80277E1,6.1397827E1,1.1296789E2,8.68041E1,4.2576553E1,6.8153694E1,-6.4776053E0,2.8379744E1,1.2929498E2,1.5489143E2,9.5523155E1,1.1951406E2,1.5801675E2,1.8005331E2,1.4409879E2,1.1316644E2,2.030156E2,1.7124759E2,2.1662425E2,1.9032487E2,2.4274023E2,2.1883257E2],"split_indices":[8,8,8,8,8,8,8,8,3,12,12,12,12,8,8,5,3,8,8,8,7,8,8,8,7,8,7,6,7,8,5,3,3,5,8,6,6,6,6,6,6,8,8,6,6,5,5,6,6,8,8,6,6,8,8,8,8,8,12,6,7,7,0,0,0,0,0,0,0,0,0,0,0,0,0,0,0,0,0,0,0,0,0,0,0,0,0,0,0,0,0,0,0,0,0,0,0,0,0,0,0,0,0,0,0,0,0,0,0,0,0,0,0,0,0,0,0,0,0,0,0,0,0,0,0],"split_type":[0,0,0,0,0,0,0,0,0,0,0,0,0,0,0,0,0,0,0,0,0,0,0,0,0,0,0,0,0,0,0,0,0,0,0,0,0,0,0,0,0,0,0,0,0,0,0,0,0,0,0,0,0,0,0,0,0,0,0,0,0,0,0,0,0,0,0,0,0,0,0,0,0,0,0,0,0,0,0,0,0,0,0,0,0,0,0,0,0,0,0,0,0,0,0,0,0,0,0,0,0,0,0,0,0,0,0,0,0,0,0,0,0,0,0,0,0,0,0,0,0,0,0,0,0],"sum_hessian":[9.7009E4,5.7203E4,3.9806E4,2.1983E4,3.522E4,2.6534E4,1.3272E4,9.094E3,1.2889E4,1.6304E4,1.8916E4,1.4025E4,1.2509E4,9.476E3,3.796E3,2.652E3,6.442E3,4.751E3,8.138E3,1.2285E4,4.019E3,1.6148E4,2.768E3,1.0892E4,3.133E3,9.859E3,2.65E3,5.315E3,4.161E3,2.662E3,1.134E3,7.53E2,1.899E3,3.585E3,2.857E3,2.005E3,2.746E3,3.311E3,4.827E3,5.374E3,6.911E3,2.997E3,1.022E3,7.382E3,8.766E3,1.434E3,1.334E3,5.329E3,5.563E3,2.61E3,5.23E2,5.02E3,4.839E3,2.469E3,1.81E2,1.64E3,3.675E3,1.594E3,2.567E3,1.517E3,1.145E3,7.49E2,3.85E2,6.51E2,1.02E2,7.05E2,1.194E3,1.57E3,2.015E3,1.07E3,1.787E3,1.64E3,3.65E2,2.028E3,7.18E2,1.08E3,2.231E3,1.653E3,3.174E3,1.825E3,3.549E3,1.863E3,5.048E3,1.561E3,1.436E3,4.31E2,5.91E2,2.688E3,4.694E3,2.654E3,6.112E3,1.31E2,1.303E3,1.32E2,1.202E3,1.871E3,3.458E3,2.081E3,3.482E3,1.304E3,1.306E3,2.39E2,2.84E2,1.721E3,3.299E3,1.441E3,3.398E3,1.349E3,1.12E3,1.18E2,6.3E1,1.111E3,5.29E2,1.803E3,1.872E3,1.014E3,5.8E2,2.2E3,3.67E2,4.13E2,1.104E3,5.66E2,5.79E2,4.71E2,2.78E2],"tree_param":{"num_deleted":"0","num_feature":"13","num_nodes":"125","size_leaf_vector":"1"}},{"base_weights":[6.3741915E-2,-1.1908234E3,1.5568613E3,-2.149125E3,-6.0462427E2,8.7849347E2,2.8079873E3,-2.752361E3,-1.8306521E3,-1.0066635E3,-2.5322643E2,4.8865033E2,1.3131469E3,2.360404E3,3.8143093E3,-3.2276013E3,-2.581698E3,-2.1732642E3,-1.6237356E3,-1.4393247E3,-8.4908734E2,-1.21057556E2,-6.925359E2,5.869729E2,-1.0042353E2,1.4119816E3,6.937996E2,2.0626062E3,2.6798743E3,3.4436694E3,4.5513696E3,-3.44303E3,-3.0812795E3,-2.82457E3,-2.4101501E3,-2.4203682E3,-1.9843547E3,-1.8900109E3,-1.4169908E3,-1.2925249E3,-1.6911611E3,-6.2475616E2,-1.0265265E3,-3.360096E2,4.537053E1,-5.226254E2,-1.0301754E3,3.9567346E2,7.763848E2,1.0643429E3,-1.6740884E2,1.1906313E3,1.6290944E3,1.8468392E3,6.397455E2,2.4962861E3,1.8652377E3,2.9836943E3,2.485012E3,3.6805508E3,3.2478962E3,4.159025E3,4.9346646E3,-1.7840533E2,-1.6525516E2,-1.390385E2,-1.5904442E2,-1.4880109E2,-1.3552567E2,-1.2873465E2,-1.1224538E2,-1.1656408E2,-1.3778093E2,-9.4461136E1,-1.1534795E2,-7.735552E1,-1.0018782E2,-5.426231E1,-7.854433E1,-7.44841E1,-4.5337364E1,-1.09374084E2,-7.6968094E1,-4.159459E1,-2.232688E1,-6.325009E1,-4.362722E1,2.1731296E0,-2.4472464E1,2.0213202E1,-3.741759E0,-3.6765697E1,-1.3548245E1,-6.943028E1,-4.147126E1,3.7905228E1,1.1512172E1,5.620645E1,2.9798395E1,1.24711876E2,4.173104E1,-3.702725E0,-3.90322E1,7.5477684E1,4.9283794E1,9.892867E1,7.3062515E1,7.1946236E1,1.4891203E2,1.9638203E1,4.469692E1,1.1913656E2,1.394375E2,9.5393936E1,4.2568592E1,1.4025528E2,1.6017465E2,1.287687E2,9.9226105E1,1.7688858E2,2.0245183E2,1.5034581E2,1.765235E2,2.2719011E2,1.9790097E2,2.3253894E2,2.604276E2],"categories":[],"categories_nodes":[],"categories_segments":[],"categories_sizes":[],"default_left":[0,0,0,0,0,0,0,0,0,0,0,0,0,0,0,0,0,0,0,0,0,0,0,0,0,0,0,0,0,0,0,0,0,0,0,0,0,0,0,0,0,0,0,0,0,0,0,0,0,0,0,0,0,0,0,0,0,0,0,0,0,0,0,0,0,0,0,0,0,0,0,0,0,0,0,0,0,0,0,0,0,0,0,0,0,0,0,0,0,0,0,0,0,0,0,0,0,0,0,0,0,0,0,0,0,0,0,0,0,0,0,0,0,0,0,0,0,0,0,0,0,0,0,0,0,0,0],"id":8,"left_children":[1,3,5,7,9,11,13,15,17,19,21,23,25,27,29,31,33,35,37,39,41,43,45,47,49,51,53,55,57,59,61,63,65,67,69,71,73,75,77,79,81,83,85,87,89,91,93,95,97,99,101,103,105,107,109,111,113,115,117,119,121,123,125,-1,-1,-1,-1,-1,-1,-1,-1,-1,-1,-1,-1,-1,-1,-1,-1,-1,-1,-1,-1,-1,-1,-1,-1,-1,-1,-1,-1,-1,-1,-1,-1,-1,-1,-1,-1,-1,-1,-1,-1,-1,-1,-1,-1,-1,-1,-1,-1,-1,-1,-1,-1,-1,-1,-1,-1,-1,-1,-1,-1,-1,-1,-1,-1],"loss_changes":[1.798555E11,3.0875599E10,3.5682976E10,4.0026604E9,4.817955E9,4.6193213E9,6.648996E9,5.761188E8,9.645752E8,1.0832015E9,1.0566634E9,8.326487E8,7.8811955E8,9.681142E8,1.2270387E9,4.928307E7,2.1430272E8,2.3508582E8,4.662436E8,1.5474995E8,4.6356634E8,5.0056586E8,2.409257E8,4.4606413E8,1.6066992E8,5.3227315E8,1.0951046E8,4.4908134E8,2.8469658E8,1.286103E8,2.0790886E8,1.317888E6,2.530816E7,2.9782016E7,7.897088E7,5.9938816E7,8.519578E7,1.4199398E8,2.4330445E8,2.0294349E8,1.1416474E8,1.8985382E8,2.3794995E8,3.5554976E8,3.4028368E8,1.4977869E8,1.0016077E8,3.6742163E8,3.8762163E8,3.470784E7,1.1134712E8,3.5854182E8,3.261225E8,3.217424E7,1.0625088E8,4.831949E7,1.5604429E8,6.6499584E7,1.3110682E8,5.743821E7,1.0296525E8,4.0564736E7,3.510272E7,0E0,0E0,0E0,0E0,0E0,0E0,0E0,0E0,0E0,0E0,0E0,0E0,0E0,0E0,0E0,0E0,0E0,0E0,0E0,0E0,0E0,0E0,0E0,0E0,0E0,0E0,0E0,0E0,0E0,0E0,0E0,0E0,0E0,0E0,0E0,0E0,0E0,0E0,0E0,0E0,0E0,0E0,0E0,0E0,0E0,0E0,0E0,0E0,0E0,0E0,0E0,0E0,0E0,0E0,0E0,0E0,0E0,0E0,0E0,0E0,0E0,0E0,0E0,0E0],"parents":[2147483647,0,0,1,1,2,2,3,3,4,4,5,5,6,6,7,7,8,8,9,9,10,10,11,11,12,12,13,13,14,14,15,15,16,16,17,17,18,18,19,19,20,20,21,21,22,22,23,23,24,24,25,25,26,26,27,27,28,28,29,29,30,30,31,31,32,32,33,33,34,34,35,35,36,36,37,37,38,38,39,39,40,40,41,41,42,42,43,43,44,44,45,45,46,46,47,47,48,48,49,49,50,50,51,51,52,52,53,53,54,54,55,55,56,56,57,57,58,58,59,59,60,60,61,61,62,62],"right_children":[2,4,6,8,10,12,14,16,18,20,22,24,26,28,30,32,34,36,38,40,42,44,46,48,50,52,54,56,58,60,62,64,66,68,70,72,74,76,78,80,82,84,86,88,90,92,94,96,98,100,102,104,106,108,110,112,114,116,118,120,122,124,126,-1,-1,-1,-1,-1,-1,-1,-1,-1,-1,-1,-1,-1,-1,-1,-1,-1,-1,-1,-1,-1,-1,-1,-1,-1,-1,-1,-1,-1,-1,-1,-1,-1,-1,-1,-1,-1,-1,-1,-1,-1,-1,-1,-1,-1,-1,-1,-1,-1,-1,-1,-1,-1,-1,-1,-1,-1,-1,-1,-1,-1,-1,-1,-1],"split_conditions":[1.5710667E4,1.3365667E4,1.8226E4,1.1973333E4,1.4523667E4,1.6837666E4,2.0131666E4,1.1046333E4,5E0,5E0,8.660254E-1,9.659258E-1,9.659258E-1,1.9041E4,2.1464334E4,1.0594667E4,5E0,1.2615333E4,1.2655E4,1.4782E4,1.2E1,1.5055667E4,1.6455E4,1.6221333E4,1.5626E4,1.7465E4,1.6793E4,1.8326E4,1.9033E4,2.0325E4,2.2208666E4,1.0354667E4,1.0718E4,1.144E4,1.1595667E4,1.3142E4,1.3943E4,1.1776E4,1.2496E4,1.3935333E4,1.3935333E4,1.3908667E4,1.3935333E4,1.4395E4,1.4937E4,1.5104667E4,1.5082333E4,1.5625E4,1.6185E4,1.4784E4,1.8428E4,1.69E4,1.7464E4,1.7271E4,1.7465E4,1.8656E4,1.9709E4,1.9484334E4,9.659258E-1,2.0829E4,2.0829E4,2.153E4,2.2765334E4,-1.7840533E2,-1.6525516E2,-1.390385E2,-1.5904442E2,-1.4880109E2,-1.3552567E2,-1.2873465E2,-1.1224538E2,-1.1656408E2,-1.3778093E2,-9.4461136E1,-1.1534795E2,-7.735552E1,-1.0018782E2,-5.426231E1,-7.854433E1,-7.44841E1,-4.5337364E1,-1.09374084E2,-7.6968094E1,-4.159459E1,-2.232688E1,-6.325009E1,-4.362722E1,2.1731296E0,-2.4472464E1,2.0213202E1,-3.741759E0,-3.6765697E1,-1.3548245E1,-6.943028E1,-4.147126E1,3.7905228E1,1.1512172E1,5.620645E1,2.9798395E1,1.24711876E2,4.173104E1,-3.702725E0,-3.90322E1,7.5477684E1,4.9283794E1,9.892867E1,7.3062515E1,7.1946236E1,1.4891203E2,1.9638203E1,4.469692E1,1.1913656E2,1.394375E2,9.5393936E1,4.2568592E1,1.4025528E2,1.6017465E2,1.287687E2,9.9226105E1,1.7688858E2,2.0245183E2,1.5034581E2,1.765235E2,2.2719011E2,1.9790097E2,2.3253894E2,2.604276E2],"split_indices":[8,8,8,8,8,8,8,8,3,3,12,12,12,8,8,8,3,8,8,6,3,8,7,8,5,8,5,6,7,7,8,8,7,5,8,6,6,6,6,8,8,8,8,6,6,8,8,6,6,5,7,6,6,8,8,8,6,8,12,8,8,6,8,0,0,0,0,0,0,0,0,0,0,0,0,0,0,0,0,0,0,0,0,0,0,0,0,0,0,0,0,0,0,0,0,0,0,0,0,0,0,0,0,0,0,0,0,0,0,0,0,0,0,0,0,0,0,0,0,0,0,0,0,0,0,0,0],"split_type":[0,0,0,0,0,0,0,0,0,0,0,0,0,0,0,0,0,0,0,0,0,0,0,0,0,0,0,0,0,0,0,0,0,0,0,0,0,0,0,0,0,0,0,0,0,0,0,0,0,0,0,0,0,0,0,0,0,0,0,0,0,0,0,0,0,0,0,0,0,0,0,0,0,0,0,0,0,0,0,0,0,0,0,0,0,0,0,0,0,0,0,0,0,0,0,0,0,0,0,0,0,0,0,0,0,0,0,0,0,0,0,0,0,0,0,0,0,0,0,0,0,0,0,0,0,0,0],"sum_hessian":[9.7009E4,5.4964E4,4.2045E4,2.086E4,3.4104E4,2.7264E4,1.4781E4,7.205E3,1.3655E4,1.5905E4,1.8199E4,1.4374E4,1.289E4,1.0233E4,4.548E3,1.899E3,5.306E3,5.138E3,8.517E3,4.244E3,1.1661E4,1.3991E4,4.208E3,1.2318E4,2.056E3,1.1115E4,1.775E3,5.3E3,4.933E3,3.03E3,1.518E3,7.59E2,1.14E3,2.19E3,3.116E3,2.221E3,2.917E3,3.719E3,4.798E3,2.685E3,1.559E3,5.152E3,6.509E3,6.105E3,7.886E3,2.801E3,1.407E3,6.13E3,6.188E3,1.11E2,1.945E3,5.507E3,5.608E3,7.8E1,1.697E3,1.654E3,3.646E3,1.922E3,3.011E3,1.363E3,1.667E3,7.56E2,7.62E2,3.85E2,3.74E2,2.91E2,8.49E2,9.3E2,1.26E3,1.554E3,1.562E3,1.761E3,4.6E2,2.258E3,6.59E2,9.3E2,2.789E3,1.523E3,3.275E3,1.775E3,9.1E2,3.62E2,1.197E3,2.381E3,2.771E3,2.551E3,3.958E3,1.758E3,4.347E3,1.978E3,5.908E3,1.517E3,1.284E3,5.03E2,9.04E2,1.92E3,4.21E3,2.112E3,4.076E3,1.4E1,9.7E1,1.689E3,2.56E2,2.152E3,3.355E3,1.816E3,3.792E3,5.9E1,1.9E1,8.62E2,8.35E2,1.198E3,4.56E2,3.498E3,1.48E2,1.068E3,8.54E2,2.547E3,4.64E2,9.9E2,3.73E2,9.06E2,7.61E2,2.52E2,5.04E2,3.83E2,3.79E2],"tree_param":{"num_deleted":"0","num_feature":"13","num_nodes":"127","size_leaf_vector":"1"}},{"base_weights":[6.882529E-2,-1.0278739E3,1.6286101E3,-1.8941512E3,-3.8189255E2,1.0458074E3,2.8491858E3,-2.4123657E3,-1.4736666E3,-7.169819E2,-1.4361672E1,6.863554E2,1.4890121E3,2.4693013E3,3.8204043E3,-2.8216875E3,-2.1751719E3,-1.8253713E3,-1.2834004E3,-5.8283777E2,-1.1429501E3,8.165936E1,-5.8146326E2,8.0903577E2,2.5685245E2,1.6382184E3,1.1155156E3,2.2183535E3,2.794433E3,3.5687095E3,4.688577E3,-3.1264346E3,-2.646861E3,-2.4521152E3,-1.9884966E3,-1.9971588E3,-1.624616E3,-1.4683357E3,-1.0786272E3,-7.6658453E2,-3.942812E2,-1.0314795E3,-1.5501829E3,-8.535625E1,2.5363913E2,3.6195557E2,-6.5370154E2,6.1622125E2,1.01488745E3,3.3521835E2,-4.916683E2,1.4446469E3,1.8861932E3,9.390256E2,1.3900728E3,2.5752273E3,2.0312964E3,3.0364985E3,2.5649297E3,3.3503003E3,3.8553784E3,4.418845E3,4.94881E3,-1.6950818E2,-1.51679E2,-1.2187139E2,-1.3830162E2,-1.1990253E2,-1.4086472E2,-8.658373E1,-1.0453481E2,-9.3678055E1,-1.13234146E2,-7.3978966E1,-1.05746765E2,-5.8104553E1,-8.123608E1,-3.726864E1,-6.3604652E1,-2.2020552E1,-4.5577854E1,-2.337036E0,-2.684899E1,-6.260846E1,-4.06917E1,-9.274016E1,-6.6615166E1,1.0819441E1,-1.2687197E1,2.8135065E1,4.436997E0,5.025021E1,-7.0173913E-1,-2.80973E1,-6.331133E1,4.604707E1,2.2046328E1,6.652623E1,4.1444263E1,5.3041415E0,2.6670477E1,-1.8108875E1,-6.225667E1,8.701873E1,6.272059E1,1.0953328E2,8.31969E1,5.361512E1,1.4952323E1,7.479543E1,3.2324337E1,1.194351E2,1.4427838E2,8.829601E1,1.0947986E2,1.4308958E2,1.6330177E2,1.33102E2,1.0419623E2,1.8581544E2,1.586745E2,2.0383905E2,1.7863896E2,2.3141545E2,2.0609927E2,2.564259E2,2.286162E2],"categories":[],"categories_nodes":[],"categories_segments":[],"categories_sizes":[],"default_left":[0,0,0,0,0,0,0,0,0,0,0,0,0,0,0,0,0,0,0,0,0,0,0,0,0,0,0,0,0,0,0,0,0,0,0,0,0,0,0,0,0,0,0,0,0,0,0,0,0,0,0,0,0,0,0,0,0,0,0,0,0,0,0,0,0,0,0,0,0,0,0,0,0,0,0,0,0,0,0,0,0,0,0,0,0,0,0,0,0,0,0,0,0,0,0,0,0,0,0,0,0,0,0,0,0,0,0,0,0,0,0,0,0,0,0,0,0,0,0,0,0,0,0,0,0,0,0],"id":9,"left_children":[1,3,5,7,9,11,13,15,17,19,21,23,25,27,29,31,33,35,37,39,41,43,45,47,49,51,53,55,57,59,61,63,65,67,69,71,73,75,77,79,81,83,85,87,89,91,93,95,97,99,101,103,105,107,109,111,113,115,117,119,121,123,125,-1,-1,-1,-1,-1,-1,-1,-1,-1,-1,-1,-1,-1,-1,-1,-1,-1,-1,-1,-1,-1,-1,-1,-1,-1,-1,-1,-1,-1,-1,-1,-1,-1,-1,-1,-1,-1,-1,-1,-1,-1,-1,-1,-1,-1,-1,-1,-1,-1,-1,-1,-1,-1,-1,-1,-1,-1,-1,-1,-1,-1,-1,-1,-1],"loss_changes":[1.62401E11,3.3279746E10,2.6700562E10,5.5320084E9,4.19578E9,4.0469053E9,4.466311E9,1.0985349E9,9.363108E8,1.0176461E9,8.848653E8,7.3916006E8,6.322463E8,7.055237E8,7.281828E8,2.1394842E8,3.6776755E8,1.6649933E8,3.4325914E8,4.69333E8,1.9209933E8,3.991894E8,1.6059584E8,4.3256474E8,1.8312069E8,3.874263E8,1.5622682E8,3.2373965E8,2.0309606E8,1.5281357E8,3.1688704E7,2.6814464E7,5.9570176E7,5.046067E7,1.0952909E8,8.331469E7,1.58656E8,2.2713344E8,2.7789926E8,3.2417075E8,3.318548E8,1.6003277E8,5.825792E7,3.5831725E8,3.489013E8,4.063315E7,1.2214726E8,3.007524E8,3.087058E8,1.281887E8,2.8428816E7,2.5485926E8,2.3726285E8,1.6873267E8,9.897958E7,9.099264E7,1.3215846E8,6.4521216E7,8.577229E7,8.592282E7,5.663744E7,4.8E6,2.259968E6,0E0,0E0,0E0,0E0,0E0,0E0,0E0,0E0,0E0,0E0,0E0,0E0,0E0,0E0,0E0,0E0,0E0,0E0,0E0,0E0,0E0,0E0,0E0,0E0,0E0,0E0,0E0,0E0,0E0,0E0,0E0,0E0,0E0,0E0,0E0,0E0,0E0,0E0,0E0,0E0,0E0,0E0,0E0,0E0,0E0,0E0,0E0,0E0,0E0,0E0,0E0,0E0,0E0,0E0,0E0,0E0,0E0,0E0,0E0,0E0,0E0,0E0,0E0,0E0],"parents":[2147483647,0,0,1,1,2,2,3,3,4,4,5,5,6,6,7,7,8,8,9,9,10,10,11,11,12,12,13,13,14,14,15,15,16,16,17,17,18,18,19,19,20,20,21,21,22,22,23,23,24,24,25,25,26,26,27,27,28,28,29,29,30,30,31,31,32,32,33,33,34,34,35,35,36,36,37,37,38,38,39,39,40,40,41,41,42,42,43,43,44,44,45,45,46,46,47,47,48,48,49,49,50,50,51,51,52,52,53,53,54,54,55,55,56,56,57,57,58,58,59,59,60,60,61,61,62,62],"right_children":[2,4,6,8,10,12,14,16,18,20,22,24,26,28,30,32,34,36,38,40,42,44,46,48,50,52,54,56,58,60,62,64,66,68,70,72,74,76,78,80,82,84,86,88,90,92,94,96,98,100,102,104,106,108,110,112,114,116,118,120,122,124,126,-1,-1,-1,-1,-1,-1,-1,-1,-1,-1,-1,-1,-1,-1,-1,-1,-1,-1,-1,-1,-1,-1,-1,-1,-1,-1,-1,-1,-1,-1,-1,-1,-1,-1,-1,-1,-1,-1,-1,-1,-1,-1,-1,-1,-1,-1,-1,-1,-1,-1,-1,-1,-1,-1,-1,-1,-1,-1,-1,-1,-1,-1,-1,-1],"split_conditions":[1.6019667E4,1.3737667E4,1.8601334E4,1.2458667E4,1.4958E4,1.7235666E4,2.0522E4,1.1526667E4,5E0,8.660254E-1,9.659258E-1,8.660254E-1,7.0710677E-1,1.9484334E4,2.2208666E4,1.0852E4,5E0,1.3159333E4,1.3196667E4,1.4373333E4,1.6217E4,1.5484E4,1.4937E4,1.6593334E4,1.8906E4,1.7932E4,1.7977E4,1.8776E4,1.9711E4,2.1207666E4,2.2765334E4,1.0354667E4,1.1291E4,1.3027E4,1.1437E4,1.3557E4,1.4421E4,1.2369E4,1.3065E4,1.3682E4,1.427E4,1.4302667E4,1.4397E4,1.4963E4,1.5479E4,1.5452E4,1.7712E4,1.5994E4,1.6584E4,1.6524E4,1.7461E4,1.7239E4,1.7983E4,1.854E4,1.9304E4,1.8969666E4,1.8969666E4,1.9938E4,9.659258E-1,2.0598E4,2.153E4,2.2263E4,2.5881904E-1,-1.6950818E2,-1.51679E2,-1.2187139E2,-1.3830162E2,-1.1990253E2,-1.4086472E2,-8.658373E1,-1.0453481E2,-9.3678055E1,-1.13234146E2,-7.3978966E1,-1.05746765E2,-5.8104553E1,-8.123608E1,-3.726864E1,-6.3604652E1,-2.2020552E1,-4.5577854E1,-2.337036E0,-2.684899E1,-6.260846E1,-4.06917E1,-9.274016E1,-6.6615166E1,1.0819441E1,-1.2687197E1,2.8135065E1,4.436997E0,5.025021E1,-7.0173913E-1,-2.80973E1,-6.331133E1,4.604707E1,2.2046328E1,6.652623E1,4.1444263E1,5.3041415E0,2.6670477E1,-1.8108875E1,-6.225667E1,8.701873E1,6.272059E1,1.0953328E2,8.31969E1,5.361512E1,1.4952323E1,7.479543E1,3.2324337E1,1.194351E2,1.4427838E2,8.829601E1,1.0947986E2,1.4308958E2,1.6330177E2,1.33102E2,1.0419623E2,1.8581544E2,1.586745E2,2.0383905E2,1.7863896E2,2.3141545E2,2.0609927E2,2.564259E2,2.286162E2],"split_indices":[8,8,8,8,8,8,8,8,3,12,12,12,12,8,8,5,3,8,8,8,7,8,5,8,7,8,8,6,7,8,8,8,7,6,7,6,6,6,6,6,6,8,8,6,6,6,7,6,6,8,5,6,6,6,6,8,8,8,12,6,7,7,12,0,0,0,0,0,0,0,0,0,0,0,0,0,0,0,0,0,0,0,0,0,0,0,0,0,0,0,0,0,0,0,0,0,0,0,0,0,0,0,0,0,0,0,0,0,0,0,0,0,0,0,0,0,0,0,0,0,0,0,0,0,0,0,0],"split_type":[0,0,0,0,0,0,0,0,0,0,0,0,0,0,0,0,0,0,0,0,0,0,0,0,0,0,0,0,0,0,0,0,0,0,0,0,0,0,0,0,0,0,0,0,0,0,0,0,0,0,0,0,0,0,0,0,0,0,0,0,0,0,0,0,0,0,0,0,0,0,0,0,0,0,0,0,0,0,0,0,0,0,0,0,0,0,0,0,0,0,0,0,0,0,0,0,0,0,0,0,0,0,0,0,0,0,0,0,0,0,0,0,0,0,0,0,0,0,0,0,0,0,0,0,0,0,0],"sum_hessian":[9.7009E4,5.9471E4,3.7538E4,2.5403E4,3.4068E4,2.5408E4,1.213E4,1.1377E4,1.4026E4,1.782E4,1.6248E4,1.4031E4,1.1377E4,8.722E3,3.408E3,4.17E3,7.207E3,4.921E3,9.105E3,1.3554E4,4.266E3,1.3896E4,2.352E3,1.0913E4,3.118E3,8.127E3,3.25E3,4.927E3,3.795E3,2.646E3,7.62E2,1.514E3,2.656E3,2.897E3,4.31E3,2.647E3,2.274E3,4.781E3,4.324E3,6.863E3,6.691E3,3.352E3,9.14E2,7.05E3,6.846E3,1.67E2,2.185E3,5.637E3,5.276E3,2.823E3,2.95E2,4.568E3,3.559E3,1.981E3,1.269E3,1.69E3,3.237E3,1.841E3,1.954E3,1.509E3,1.137E3,3.83E2,3.79E2,3.85E2,1.129E3,9.71E2,1.685E3,2.53E3,3.67E2,1.232E3,3.078E3,1.816E3,8.31E2,1.758E3,5.16E2,1.619E3,3.162E3,1.59E3,2.734E3,2.113E3,4.75E3,1.948E3,4.743E3,1.662E3,1.69E3,3.78E2,5.36E2,2.525E3,4.525E3,2.381E3,4.465E3,6.1E1,1.06E2,1.902E3,2.83E2,2.057E3,3.58E3,1.954E3,3.322E3,1.31E3,1.513E3,2.53E2,4.2E1,1.785E3,2.783E3,1.498E3,2.061E3,1.639E3,3.42E2,1.11E3,1.59E2,1.061E3,6.29E2,1.214E3,2.023E3,1.053E3,7.88E2,1.622E3,3.32E2,4.85E2,1.024E3,6.3E2,5.07E2,2.16E2,1.67E2,2.48E2,1.31E2],"tree_param":{"num_deleted":"0","num_feature":"13","num_nodes":"127","size_leaf_vector":"1"}},{"base_weights":[7.8474484E-2,-1.0753658E3,1.4059624E3,-1.9669257E3,-5.615989E2,8.053124E2,2.5583406E3,-2.5112986E3,-1.686983E3,-9.409764E2,-2.4257097E2,4.5993094E2,1.2228358E3,2.1733066E3,3.5023157E3,-2.9161177E3,-2.354551E3,-1.9934594E3,-1.5005024E3,-7.722142E2,-1.2814885E3,-1.4989015E2,-7.7244165E2,5.783526E2,4.8592163E1,1.3116355E3,6.576309E2,1.917119E3,2.4934856E3,3.218768E3,4.258188E3,-3.1108198E3,-2.783874E3,-2.5735369E3,-2.1989646E3,-2.1907825E3,-1.8155996E3,-1.7177888E3,-1.3006844E3,-5.401747E2,-8.950535E2,-8.617532E2,-1.3811249E3,-3.3617926E2,2.0365725E1,-6.881664E2,-1.2564352E3,4.062884E2,7.688345E2,1.674986E2,-4.8579358E2,1.129414E3,1.5261166E3,1.8838496E3,6.054162E2,2.33343E3,1.7620703E3,2.9139443E3,2.3687095E3,3.0527769E3,3.4901492E3,4.0254084E3,4.6994487E3,-1.5647456E2,-1.2039182E2,-1.2689666E2,-1.4472234E2,-1.357112E2,-1.24183525E2,-1.16083916E2,-1.02697365E2,-1.0563036E2,-1.25232445E2,-8.110157E1,-9.87247E1,-7.341581E1,-9.228219E1,-4.970258E1,-7.281966E1,-3.470744E1,-1.3465522E1,-5.7829113E1,-3.71665E1,-5.3913635E1,-3.6330387E1,-7.763137E1,-6.1486195E1,-1.8525066E0,-2.5042774E1,1.509703E1,-6.1879697E0,-4.534822E1,-2.4033602E1,-7.572059E1,-4.4008194E1,3.5213284E1,1.2373672E1,5.6107464E1,3.120227E1,-1.3286785E0,1.9082354E1,-3.9594692E1,-7.6099505E0,7.2029816E1,4.80517E1,9.206816E1,6.7238914E1,7.352099E1,1.3233891E2,3.3234577E1,-1.1472441E1,1.1071926E2,1.3184206E2,7.841528E1,9.900417E1,1.3726053E2,1.623426E2,1.0764034E2,1.2963924E2,1.7341194E2,1.4524013E2,1.92016E2,1.6624399E2,2.1444734E2,1.9268626E2,2.4365733E2,2.1702013E2],"categories":[],"categories_nodes":[],"categories_segments":[],"categories_sizes":[],"default_left":[0,0,0,0,0,0,0,0,0,0,0,0,0,0,0,0,0,0,0,0,0,0,0,0,0,0,0,0,0,0,0,0,0,0,0,0,0,0,0,0,0,0,0,0,0,0,0,0,0,0,0,0,0,0,0,0,0,0,0,0,0,0,0,0,0,0,0,0,0,0,0,0,0,0,0,0,0,0,0,0,0,0,0,0,0,0,0,0,0,0,0,0,0,0,0,0,0,0,0,0,0,0,0,0,0,0,0,0,0,0,0,0,0,0,0,0,0,0,0,0,0,0,0,0,0,0,0],"id":10,"left_children":[1,3,5,7,9,11,13,15,17,19,21,23,25,27,29,31,33,35,37,39,41,43,45,47,49,51,53,55,57,59,61,63,65,67,69,71,73,75,77,79,81,83,85,87,89,91,93,95,97,99,101,103,105,107,109,111,113,115,117,119,121,123,125,-1,-1,-1,-1,-1,-1,-1,-1,-1,-1,-1,-1,-1,-1,-1,-1,-1,-1,-1,-1,-1,-1,-1,-1,-1,-1,-1,-1,-1,-1,-1,-1,-1,-1,-1,-1,-1,-1,-1,-1,-1,-1,-1,-1,-1,-1,-1,-1,-1,-1,-1,-1,-1,-1,-1,-1,-1,-1,-1,-1,-1,-1,-1,-1],"loss_changes":[1.4667576E11,2.517583E10,2.9101162E10,3.0579507E9,4.2203986E9,3.985404E9,5.2284375E9,4.2601677E8,7.555891E8,9.143798E8,9.302021E8,7.36927E8,6.271652E8,8.347566E8,8.804639E8,4.026061E7,1.6207667E8,1.721344E8,3.5622093E8,3.0316544E8,2.1949952E8,5.1144054E8,1.1415962E8,3.8469658E8,2.1504365E8,4.2088243E8,1.077689E8,3.631698E8,2.3159398E8,1.2619571E8,9.766707E7,2.440192E6,2.3683072E7,1.9037184E7,4.657152E7,5.295821E7,7.814963E7,1.2334387E8,2.04096E8,1.5370854E8,2.7547187E8,2.8917056E7,1.0878208E8,3.7927923E8,3.4198138E8,1.0870413E8,3.9144896E7,2.9199936E8,2.8444416E8,1.15048936E8,6.278133E7,3.0513715E8,2.812969E8,1.787192E7,8.096461E7,4.9821696E7,1.7220403E8,4.928205E7,1.6427418E8,1.0630554E8,5.355315E7,1.7405952E7,2.921984E6,0E0,0E0,0E0,0E0,0E0,0E0,0E0,0E0,0E0,0E0,0E0,0E0,0E0,0E0,0E0,0E0,0E0,0E0,0E0,0E0,0E0,0E0,0E0,0E0,0E0,0E0,0E0,0E0,0E0,0E0,0E0,0E0,0E0,0E0,0E0,0E0,0E0,0E0,0E0,0E0,0E0,0E0,0E0,0E0,0E0,0E0,0E0,0E0,0E0,0E0,0E0,0E0,0E0,0E0,0E0,0E0,0E0,0E0,0E0,0E0,0E0,0E0,0E0,0E0],"parents":[2147483647,0,0,1,1,2,2,3,3,4,4,5,5,6,6,7,7,8,8,9,9,10,10,11,11,12,12,13,13,14,14,15,15,16,16,17,17,18,18,19,19,20,20,21,21,22,22,23,23,24,24,25,25,26,26,27,27,28,28,29,29,30,30,31,31,32,32,33,33,34,34,35,35,36,36,37,37,38,38,39,39,40,40,41,41,42,42,43,43,44,44,45,45,46,46,47,47,48,48,49,49,50,50,51,51,52,52,53,53,54,54,55,55,56,56,57,57,58,58,59,59,60,60,61,61,62,62],"right_children":[2,4,6,8,10,12,14,16,18,20,22,24,26,28,30,32,34,36,38,40,42,44,46,48,50,52,54,56,58,60,62,64,66,68,70,72,74,76,78,80,82,84,86,88,90,92,94,96,98,100,102,104,106,108,110,112,114,116,118,120,122,124,126,-1,-1,-1,-1,-1,-1,-1,-1,-1,-1,-1,-1,-1,-1,-1,-1,-1,-1,-1,-1,-1,-1,-1,-1,-1,-1,-1,-1,-1,-1,-1,-1,-1,-1,-1,-1,-1,-1,-1,-1,-1,-1,-1,-1,-1,-1,-1,-1,-1,-1,-1,-1,-1,-1,-1,-1,-1,-1,-1,-1,-1,-1,-1,-1],"split_conditions":[1.5710667E4,1.3298667E4,1.8282E4,1.1922E4,1.4473E4,1.6908334E4,2.0252666E4,1.1046333E4,5E0,7.0710677E-1,9.659258E-1,8.660254E-1,9.659258E-1,1.9185E4,2.1802E4,1.0594667E4,5E0,1.2615333E4,1.2655E4,1.3253E4,-2.5881904E-1,1.5082333E4,1.7165E4,1.6282E4,1.8075E4,1.7581334E4,1.6829E4,1.8326E4,1.9168E4,2.0986E4,2.2839E4,9E0,1.0857E4,1.1369E4,1.1595667E4,1.3142E4,1.3426E4,1.1778E4,1.2496E4,1.3935333E4,1.3878E4,1.3878E4,1.3851667E4,1.45E4,1.5112E4,1.5031E4,1.5390667E4,1.5676E4,1.6131E4,1.6251667E4,1.6427666E4,1.694E4,1.7628E4,1.7271E4,2.0102E4,1.8721334E4,1.8783666E4,1.9563334E4,1.9742666E4,2.0206E4,2.1063E4,2.153E4,6.123234E-17,-1.5647456E2,-1.2039182E2,-1.2689666E2,-1.4472234E2,-1.357112E2,-1.24183525E2,-1.16083916E2,-1.02697365E2,-1.0563036E2,-1.25232445E2,-8.110157E1,-9.87247E1,-7.341581E1,-9.228219E1,-4.970258E1,-7.281966E1,-3.470744E1,-1.3465522E1,-5.7829113E1,-3.71665E1,-5.3913635E1,-3.6330387E1,-7.763137E1,-6.1486195E1,-1.8525066E0,-2.5042774E1,1.509703E1,-6.1879697E0,-4.534822E1,-2.4033602E1,-7.572059E1,-4.4008194E1,3.5213284E1,1.2373672E1,5.6107464E1,3.120227E1,-1.3286785E0,1.9082354E1,-3.9594692E1,-7.6099505E0,7.2029816E1,4.80517E1,9.206816E1,6.7238914E1,7.352099E1,1.3233891E2,3.3234577E1,-1.1472441E1,1.1071926E2,1.3184206E2,7.841528E1,9.900417E1,1.3726053E2,1.623426E2,1.0764034E2,1.2963924E2,1.7341194E2,1.4524013E2,1.92016E2,1.6624399E2,2.1444734E2,1.9268626E2,2.4365733E2,2.1702013E2],"split_indices":[8,8,8,8,8,8,8,8,3,12,12,12,12,8,8,8,3,8,8,7,11,8,7,8,7,8,5,6,6,8,5,3,7,5,8,6,6,7,6,8,8,8,8,6,6,8,8,6,6,8,8,6,6,8,7,8,8,8,8,6,6,7,12,0,0,0,0,0,0,0,0,0,0,0,0,0,0,0,0,0,0,0,0,0,0,0,0,0,0,0,0,0,0,0,0,0,0,0,0,0,0,0,0,0,0,0,0,0,0,0,0,0,0,0,0,0,0,0,0,0,0,0,0,0,0,0,0],"split_type":[0,0,0,0,0,0,0,0,0,0,0,0,0,0,0,0,0,0,0,0,0,0,0,0,0,0,0,0,0,0,0,0,0,0,0,0,0,0,0,0,0,0,0,0,0,0,0,0,0,0,0,0,0,0,0,0,0,0,0,0,0,0,0,0,0,0,0,0,0,0,0,0,0,0,0,0,0,0,0,0,0,0,0,0,0,0,0,0,0,0,0,0,0,0,0,0,0,0,0,0,0,0,0,0,0,0,0,0,0,0,0,0,0,0,0,0,0,0,0,0,0,0,0,0,0,0,0],"sum_hessian":[9.7009E4,5.4964E4,4.2045E4,2.0093E4,3.4871E4,2.764E4,1.4405E4,6.821E3,1.3272E4,1.5928E4,1.8943E4,1.5128E4,1.2512E4,1.0234E4,4.171E3,1.899E3,4.922E3,5.017E3,8.255E3,1.0652E4,5.276E3,1.6124E4,2.819E3,1.1746E4,3.382E3,1.0812E4,1.7E3,5.689E3,4.545E3,3.037E3,1.134E3,7.59E2,1.14E3,2.038E3,2.884E3,2.373E3,2.644E3,3.951E3,4.304E3,3.689E3,6.963E3,1.014E3,4.262E3,7.699E3,8.425E3,2.403E3,4.16E2,6.173E3,5.573E3,2.767E3,6.15E2,5.849E3,4.963E3,6.8E1,1.632E3,1.54E3,4.149E3,1.035E3,3.51E3,1.892E3,1.145E3,7.49E2,3.85E2,7.36E2,2.3E1,3.61E2,7.79E2,7.83E2,1.255E3,1.554E3,1.33E3,1.906E3,4.67E2,1.197E3,1.447E3,1.343E3,2.608E3,1.452E3,2.852E3,2.351E3,1.338E3,2.554E3,4.409E3,3.87E2,6.27E2,1.994E3,2.268E3,2.734E3,4.965E3,2.852E3,5.573E3,1.168E3,1.235E3,2.45E2,1.71E2,2.145E3,4.028E3,1.618E3,3.955E3,1.452E3,1.315E3,3.2E2,2.95E2,2.051E3,3.798E3,1.809E3,3.154E3,4.6E1,2.2E1,1.524E3,1.08E2,1.112E3,4.28E2,2.201E3,1.948E3,6.93E2,3.42E2,1.793E3,1.717E3,4.91E2,1.401E3,3.6E2,7.85E2,2.86E2,4.63E2,2.51E2,1.34E2],"tree_param":{"num_deleted":"0","num_feature":"13","num_nodes":"127","size_leaf_vector":"1"}},{"base_weights":[8.287633E-2,-8.97901E2,1.5203289E3,-1.7001302E3,-3.1046725E2,1.0222339E3,2.6521714E3,-2.1936057E3,-1.3325968E3,-6.330914E2,1.8559782E1,7.0755945E2,1.449594E3,2.320335E3,3.521169E3,-2.6074272E3,-2.0074159E3,-1.6490792E3,-1.1621787E3,-1.0726781E3,-5.255583E2,1.3405618E2,-3.7082532E2,7.949563E2,1.8909865E2,1.6826799E3,1.2534939E3,2.103845E3,2.6097478E3,3.2794888E3,4.2393687E3,-2.8841575E3,-2.4687073E3,-2.1986697E3,-1.7865449E3,-1.8103362E3,-1.4595769E3,-1.3696727E3,-9.9485034E2,-6.22847E2,-1.1666965E3,-6.89368E2,-3.596904E2,-2.3598364E1,3.0407037E2,-2.6319476E2,-9.419406E2,6.1078577E2,9.800759E2,1.2461637E3,1.3000873E2,1.4680414E3,1.9691229E3,9.799295E2,1.473083E3,2.4492798E3,1.9185188E3,2.948733E3,2.4553264E3,3.1307073E3,3.5739026E3,3.9994546E3,4.4700205E3,-1.4714006E2,-1.2624068E2,-1.1238665E2,-1.27966286E2,-1.1584402E2,-1.0360774E2,-7.95251E1,-9.537094E1,-8.561381E1,-1.0410205E2,-6.2673157E1,-8.880493E1,-5.1555286E1,-7.460687E1,-3.5269413E1,-5.8304127E1,1.9090368E1,-3.6091003E1,-7.094476E1,-4.927704E1,-2.153474E1,-4.2524063E1,-3.197862E0,-2.5197458E1,1.53676605E1,-7.0228424E0,2.9669073E1,7.859348E0,-2.2987116E1,-2.9059162E0,-4.3229855E1,-8.462339E1,4.619298E1,2.2455574E1,6.4590256E1,4.1076244E1,2.3314472E1,7.800671E1,-7.779771E0,1.4761516E1,9.555549E1,6.8149254E1,1.1050106E2,9.140923E1,5.2443737E1,1.3010529E1,7.6248955E1,3.332971E1,1.1593227E2,1.397043E2,9.756435E1,4.41041E1,1.3976915E2,1.6762784E2,1.264036E2,9.644007E1,1.704217E2,1.4723845E2,1.9579613E2,1.7024594E2,2.0878587E2,1.855117E2,2.2943578E2,2.0020476E2],"categories":[],"categories_nodes":[],"categories_segments":[],"categories_sizes":[],"default_left":[0,0,0,0,0,0,0,0,0,0,0,0,0,0,0,0,0,0,0,0,0,0,0,0,0,0,0,0,0,0,0,0,0,0,0,0,0,0,0,0,0,0,0,0,0,0,0,0,0,0,0,0,0,0,0,0,0,0,0,0,0,0,0,0,0,0,0,0,0,0,0,0,0,0,0,0,0,0,0,0,0,0,0,0,0,0,0,0,0,0,0,0,0,0,0,0,0,0,0,0,0,0,0,0,0,0,0,0,0,0,0,0,0,0,0,0,0,0,0,0,0,0,0,0,0,0,0],"id":11,"left_children":[1,3,5,7,9,11,13,15,17,19,21,23,25,27,29,31,33,35,37,39,41,43,45,47,49,51,53,55,57,59,61,63,65,67,69,71,73,75,77,79,81,83,85,87,89,91,93,95,97,99,101,103,105,107,109,111,113,115,117,119,121,123,125,-1,-1,-1,-1,-1,-1,-1,-1,-1,-1,-1,-1,-1,-1,-1,-1,-1,-1,-1,-1,-1,-1,-1,-1,-1,-1,-1,-1,-1,-1,-1,-1,-1,-1,-1,-1,-1,-1,-1,-1,-1,-1,-1,-1,-1,-1,-1,-1,-1,-1,-1,-1,-1,-1,-1,-1,-1,-1,-1,-1,-1,-1,-1,-1],"loss_changes":[1.3243519E11,2.8739994E10,2.0306362E10,4.672766E9,3.737413E9,3.363244E9,3.1661507E9,8.425431E8,7.9512576E8,8.397573E8,7.8401165E8,6.5279334E8,4.8276275E8,4.9380966E8,5.1376538E8,1.2382208E8,3.1681536E8,1.553449E8,3.3225933E8,1.4700058E8,3.8788634E8,3.6038035E8,2.4489229E8,4.198098E8,1.2975875E8,2.9492634E8,3.448709E8,2.874798E8,1.71051E8,8.863744E7,2.428928E7,1.644544E7,3.988275E7,5.599232E7,8.059187E7,7.074406E7,1.5317402E8,1.7621094E8,2.6301286E8,6.053243E7,1.3054618E8,2.9911552E8,3.0286867E8,2.6987514E8,2.7480698E8,1.3528478E8,3.5223296E7,3.1259443E8,3.0280346E8,2.6206848E7,9.305342E7,1.2647066E8,6.6307584E7,1.2725376E8,1.3274778E8,6.5140736E7,9.931571E7,5.633331E7,8.498074E7,6.855987E7,3.0475264E7,4.032512E6,2.641408E6,0E0,0E0,0E0,0E0,0E0,0E0,0E0,0E0,0E0,0E0,0E0,0E0,0E0,0E0,0E0,0E0,0E0,0E0,0E0,0E0,0E0,0E0,0E0,0E0,0E0,0E0,0E0,0E0,0E0,0E0,0E0,0E0,0E0,0E0,0E0,0E0,0E0,0E0,0E0,0E0,0E0,0E0,0E0,0E0,0E0,0E0,0E0,0E0,0E0,0E0,0E0,0E0,0E0,0E0,0E0,0E0,0E0,0E0,0E0,0E0,0E0,0E0,0E0,0E0],"parents":[2147483647,0,0,1,1,2,2,3,3,4,4,5,5,6,6,7,7,8,8,9,9,10,10,11,11,12,12,13,13,14,14,15,15,16,16,17,17,18,18,19,19,20,20,21,21,22,22,23,23,24,24,25,25,26,26,27,27,28,28,29,29,30,30,31,31,32,32,33,33,34,34,35,35,36,36,37,37,38,38,39,39,40,40,41,41,42,42,43,43,44,44,45,45,46,46,47,47,48,48,49,49,50,50,51,51,52,52,53,53,54,54,55,55,56,56,57,57,58,58,59,59,60,60,61,61,62,62],"right_children":[2,4,6,8,10,12,14,16,18,20,22,24,26,28,30,32,34,36,38,40,42,44,46,48,50,52,54,56,58,60,62,64,66,68,70,72,74,76,78,80,82,84,86,88,90,92,94,96,98,100,102,104,106,108,110,112,114,116,118,120,122,124,126,-1,-1,-1,-1,-1,-1,-1,-1,-1,-1,-1,-1,-1,-1,-1,-1,-1,-1,-1,-1,-1,-1,-1,-1,-1,-1,-1,-1,-1,-1,-1,-1,-1,-1,-1,-1,-1,-1,-1,-1,-1,-1,-1,-1,-1,-1,-1,-1,-1,-1,-1,-1,-1,-1,-1,-1,-1,-1,-1,-1,-1,-1,-1,-1],"split_conditions":[1.6132333E4,1.3765E4,1.8783666E4,1.2419E4,1.4979E4,1.7425666E4,2.0666E4,1.1386E4,5E0,4E0,8.660254E-1,9.659258E-1,1.7797E4,1.965E4,2.2278E4,1.0709E4,6E0,1.3159333E4,1.3086333E4,1.45E4,1.4397E4,1.5559E4,1.7588E4,1.6729E4,1.6129E4,1.7977E4,1.8077334E4,1.8966E4,1.9808E4,2.1464334E4,2.2765334E4,8E0,1.1057E4,4E0,5E0,1.3623E4,1.4192E4,1.2209E4,1.3027E4,1.3453E4,1.4326E4,1.3827E4,1.4371E4,1.4832E4,1.5524E4,1.5507E4,1.6362E4,1.6106E4,1.6723E4,1.6251667E4,1.6593334E4,1.69E4,1.7628E4,1.8776E4,1.9382E4,1.9250666E4,2.033E4,2.0131666E4,9.659258E-1,2.0908E4,2.153E4,2.2263E4,5E-1,-1.4714006E2,-1.2624068E2,-1.1238665E2,-1.27966286E2,-1.1584402E2,-1.0360774E2,-7.95251E1,-9.537094E1,-8.561381E1,-1.0410205E2,-6.2673157E1,-8.880493E1,-5.1555286E1,-7.460687E1,-3.5269413E1,-5.8304127E1,1.9090368E1,-3.6091003E1,-7.094476E1,-4.927704E1,-2.153474E1,-4.2524063E1,-3.197862E0,-2.5197458E1,1.53676605E1,-7.0228424E0,2.9669073E1,7.859348E0,-2.2987116E1,-2.9059162E0,-4.3229855E1,-8.462339E1,4.619298E1,2.2455574E1,6.4590256E1,4.1076244E1,2.3314472E1,7.800671E1,-7.779771E0,1.4761516E1,9.555549E1,6.8149254E1,1.1050106E2,9.140923E1,5.2443737E1,1.3010529E1,7.6248955E1,3.332971E1,1.1593227E2,1.397043E2,9.756435E1,4.41041E1,1.3976915E2,1.6762784E2,1.264036E2,9.644007E1,1.704217E2,1.4723845E2,1.9579613E2,1.7024594E2,2.0878587E2,1.855117E2,2.2943578E2,2.0020476E2],"split_indices":[8,8,8,8,8,8,8,8,3,3,12,12,7,8,5,5,3,8,8,6,8,8,7,8,5,8,8,6,6,8,8,3,7,3,4,6,6,6,6,5,8,6,6,6,6,8,5,6,6,8,8,6,6,6,6,8,6,8,12,6,6,7,12,0,0,0,0,0,0,0,0,0,0,0,0,0,0,0,0,0,0,0,0,0,0,0,0,0,0,0,0,0,0,0,0,0,0,0,0,0,0,0,0,0,0,0,0,0,0,0,0,0,0,0,0,0,0,0,0,0,0,0,0,0,0,0,0],"split_type":[0,0,0,0,0,0,0,0,0,0,0,0,0,0,0,0,0,0,0,0,0,0,0,0,0,0,0,0,0,0,0,0,0,0,0,0,0,0,0,0,0,0,0,0,0,0,0,0,0,0,0,0,0,0,0,0,0,0,0,0,0,0,0,0,0,0,0,0,0,0,0,0,0,0,0,0,0,0,0,0,0,0,0,0,0,0,0,0,0,0,0,0,0,0,0,0,0,0,0,0,0,0,0,0,0,0,0,0,0,0,0,0,0,0,0,0,0,0,0,0,0,0,0,0,0,0,0],"sum_hessian":[9.7009E4,6.0986E4,3.6023E4,2.5779E4,3.5207E4,2.5016E4,1.1007E4,1.1002E4,1.4777E4,1.7776E4,1.7431E4,1.4409E4,1.0607E4,7.968E3,3.039E3,3.41E3,7.592E3,5.169E3,9.608E3,3.492E3,1.4284E4,1.3444E4,3.987E3,1.233E4,2.079E3,4.843E3,5.764E3,4.563E3,3.405E3,2.278E3,7.61E2,1.132E3,2.278E3,4.064E3,3.528E3,2.788E3,2.381E3,4.286E3,5.322E3,6.05E2,2.887E3,7.185E3,7.099E3,6.976E3,6.468E3,3.356E3,6.31E2,6.183E3,6.147E3,1.09E2,1.97E3,2.772E3,2.071E3,2.569E3,3.195E3,1.589E3,2.974E3,1.06E3,2.345E3,1.521E3,7.57E2,3.82E2,3.79E2,9.67E2,1.65E2,6.7E2,1.608E3,2.092E3,1.972E3,1.351E3,2.177E3,2.054E3,7.34E2,1.445E3,9.36E2,1.141E3,3.145E3,1.98E3,3.342E3,5.4E1,5.51E2,1.204E3,1.683E3,2.759E3,4.426E3,2.328E3,4.771E3,1.82E3,5.156E3,2.177E3,4.291E3,1.713E3,1.643E3,5.74E2,5.7E1,2.104E3,4.079E3,2.07E3,4.077E3,3.2E1,7.7E1,7.22E2,1.248E3,5.28E2,2.244E3,7.59E2,1.312E3,2.344E3,2.25E2,3.001E3,1.94E2,1.158E3,4.31E2,2.882E3,9.2E1,7.74E2,2.86E2,2.057E3,2.88E2,6.03E2,9.18E2,2.43E2,5.14E2,2.29E2,1.53E2,2.95E2,8.4E1],"tree_param":{"num_deleted":"0","num_feature":"13","num_nodes":"127","size_leaf_vector":"1"}},{"base_weights":[9.368205E-2,-9.3373975E2,1.320244E3,-1.708662E3,-4.306677E2,7.998341E2,2.3756282E3,-2.1962512E3,-1.4180807E3,-7.492162E2,-1.3126665E2,4.7496606E2,1.1740046E3,2.0374751E3,3.219005E3,-2.5896033E3,-2.048342E3,-1.1836647E3,-1.6188875E3,-6.2709766E2,-1.1257269E3,-4.7285984E1,-6.17476E2,5.58566E2,-1.980085E1,1.2801566E3,7.7874506E2,1.8136458E3,2.3228762E3,2.9502222E3,3.8468018E3,-2.8143567E3,-2.4767812E3,-2.2075942E3,-1.8411116E3,-1.394996E3,-1.00476794E3,-1.793832E3,-1.4331937E3,-7.920371E2,-4.8044574E2,-1.0362106E3,-1.5429011E3,-1.9927531E2,1.079957E2,2.699262E2,-6.673827E2,3.9636142E2,7.2181494E2,1.1167291E3,-7.344928E1,1.1059382E3,1.4831494E3,8.351548E2,8.905333E0,2.1227656E3,1.6313069E3,2.6995442E3,2.1923118E3,3.152445E3,2.777066E3,3.6370967E3,4.2442935E3,-1.4720586E2,-1.3404875E2,-1.13078445E2,-1.2821017E2,-1.1645901E2,-1.0518286E2,-9.9925064E1,-8.670464E1,-5.8669746E1,-7.7553734E1,-4.27328E1,-6.440379E1,-8.503932E1,-1.0306852E2,-6.1791748E1,-8.2973015E1,-2.2719034E1,-4.5694294E1,-9.138976E0,-3.1325632E1,-6.062032E1,-4.204944E1,-7.379047E1,-1.2257204E2,3.5802715E0,-1.7450802E1,1.9688147E1,-1.4869345E0,1.0378765E0,6.5598724E1,-4.443569E1,-2.3745192E1,3.350851E1,1.2108521E1,4.9583122E1,2.7449888E1,9.437109E1,3.3442783E1,-1.42855E1,6.85934E0,6.785491E1,4.6817772E1,8.7158226E1,6.531761E1,3.255324E1,5.2805298E1,3.9110646E0,-5.378769E1,1.0020312E2,1.2206374E2,8.357793E1,3.2669666E1,1.2853098E2,1.5585735E2,1.00794075E2,1.21070244E2,1.5021007E2,1.7218556E2,1.3032521E2,1.5360573E2,1.8923651E2,1.6871503E2,2.201508E2,1.9582861E2],"categories":[],"categories_nodes":[],"categories_segments":[],"categories_sizes":[],"default_left":[0,0,0,0,0,0,0,0,0,0,0,0,0,0,0,0,0,0,0,0,0,0,0,0,0,0,0,0,0,0,0,0,0,0,0,0,0,0,0,0,0,0,0,0,0,0,0,0,0,0,0,0,0,0,0,0,0,0,0,0,0,0,0,0,0,0,0,0,0,0,0,0,0,0,0,0,0,0,0,0,0,0,0,0,0,0,0,0,0,0,0,0,0,0,0,0,0,0,0,0,0,0,0,0,0,0,0,0,0,0,0,0,0,0,0,0,0,0,0,0,0,0,0,0,0,0,0],"id":12,"left_children":[1,3,5,7,9,11,13,15,17,19,21,23,25,27,29,31,33,35,37,39,41,43,45,47,49,51,53,55,57,59,61,63,65,67,69,71,73,75,77,79,81,83,85,87,89,91,93,95,97,99,101,103,105,107,109,111,113,115,117,119,121,123,125,-1,-1,-1,-1,-1,-1,-1,-1,-1,-1,-1,-1,-1,-1,-1,-1,-1,-1,-1,-1,-1,-1,-1,-1,-1,-1,-1,-1,-1,-1,-1,-1,-1,-1,-1,-1,-1,-1,-1,-1,-1,-1,-1,-1,-1,-1,-1,-1,-1,-1,-1,-1,-1,-1,-1,-1,-1,-1,-1,-1,-1,-1,-1,-1],"loss_changes":[1.1959521E11,2.2149685E10,2.2072852E10,3.1657902E9,3.2859095E9,3.2717312E9,3.778773E9,4.8050176E8,6.578975E8,7.668214E8,7.2523206E8,5.9608525E8,5.2389274E8,6.011863E8,6.293627E8,5.079347E7,1.9635814E8,2.43243E8,2.4260403E8,3.0456627E8,1.5102566E8,3.575083E8,1.1603578E8,3.2615603E8,1.2714985E8,3.470592E8,1.1511616E8,2.9617152E8,1.987666E8,8.449229E7,7.917363E7,5.156864E6,2.2892544E7,3.843379E7,4.1086976E7,1.0069606E8,1.4808704E8,9.31287E7,1.6165632E8,2.4364493E8,2.9015245E8,1.1483008E8,4.027021E7,3.105261E8,2.94936E8,3.6323176E7,1.0510195E8,2.6100346E8,2.859305E8,3.118384E7,8.905634E7,2.2489498E8,2.06933E8,9.97792E7,1.3767668E7,6.95511E7,1.3069517E8,4.94336E7,1.2025651E8,4.2374144E7,6.4610304E7,1.632768E7,2.83392E6,0E0,0E0,0E0,0E0,0E0,0E0,0E0,0E0,0E0,0E0,0E0,0E0,0E0,0E0,0E0,0E0,0E0,0E0,0E0,0E0,0E0,0E0,0E0,0E0,0E0,0E0,0E0,0E0,0E0,0E0,0E0,0E0,0E0,0E0,0E0,0E0,0E0,0E0,0E0,0E0,0E0,0E0,0E0,0E0,0E0,0E0,0E0,0E0,0E0,0E0,0E0,0E0,0E0,0E0,0E0,0E0,0E0,0E0,0E0,0E0,0E0,0E0,0E0,0E0],"parents":[2147483647,0,0,1,1,2,2,3,3,4,4,5,5,6,6,7,7,8,8,9,9,10,10,11,11,12,12,13,13,14,14,15,15,16,16,17,17,18,18,19,19,20,20,21,21,22,22,23,23,24,24,25,25,26,26,27,27,28,28,29,29,30,30,31,31,32,32,33,33,34,34,35,35,36,36,37,37,38,38,39,39,40,40,41,41,42,42,43,43,44,44,45,45,46,46,47,47,48,48,49,49,50,50,51,51,52,52,53,53,54,54,55,55,56,56,57,57,58,58,59,59,60,60,61,61,62,62],"right_children":[2,4,6,8,10,12,14,16,18,20,22,24,26,28,30,32,34,36,38,40,42,44,46,48,50,52,54,56,58,60,62,64,66,68,70,72,74,76,78,80,82,84,86,88,90,92,94,96,98,100,102,104,106,108,110,112,114,116,118,120,122,124,126,-1,-1,-1,-1,-1,-1,-1,-1,-1,-1,-1,-1,-1,-1,-1,-1,-1,-1,-1,-1,-1,-1,-1,-1,-1,-1,-1,-1,-1,-1,-1,-1,-1,-1,-1,-1,-1,-1,-1,-1,-1,-1,-1,-1,-1,-1,-1,-1,-1,-1,-1,-1,-1,-1,-1,-1,-1,-1,-1,-1,-1,-1,-1,-1],"split_conditions":[1.5834E4,1.3497E4,1.8434334E4,1.2119E4,1.4683667E4,1.7026E4,2.0371666E4,1.1143333E4,2.5881904E-1,8.660254E-1,9.659258E-1,9.659258E-1,8.660254E-1,1.9325334E4,2.1802E4,1.0521E4,6E0,1.2800667E4,1.2875667E4,1.4098E4,1.6159E4,1.5269667E4,1.4599E4,1.6366E4,1.5699E4,1.7712666E4,1.9902E4,1.8655E4,1.9382E4,2.0597E4,2.2839E4,6E0,1.0857E4,4E0,1.1655E4,5E0,1.2E1,1.3142E4,1.3588E4,1.3324E4,1.4058E4,1.4098E4,1.4884E4,1.4701E4,1.5261E4,1.5131E4,1.5224E4,1.5833E4,1.6424E4,1.6905E4,1.6397666E4,1.7091E4,1.7797E4,1.7666666E4,1.9169E4,1.8906E4,2.0005E4,1.9835334E4,1.9938E4,2.0986E4,2.1207666E4,2.2263E4,6.123234E-17,-1.4720586E2,-1.3404875E2,-1.13078445E2,-1.2821017E2,-1.1645901E2,-1.0518286E2,-9.9925064E1,-8.670464E1,-5.8669746E1,-7.7553734E1,-4.27328E1,-6.440379E1,-8.503932E1,-1.0306852E2,-6.1791748E1,-8.2973015E1,-2.2719034E1,-4.5694294E1,-9.138976E0,-3.1325632E1,-6.062032E1,-4.204944E1,-7.379047E1,-1.2257204E2,3.5802715E0,-1.7450802E1,1.9688147E1,-1.4869345E0,1.0378765E0,6.5598724E1,-4.443569E1,-2.3745192E1,3.350851E1,1.2108521E1,4.9583122E1,2.7449888E1,9.437109E1,3.3442783E1,-1.42855E1,6.85934E0,6.785491E1,4.6817772E1,8.7158226E1,6.531761E1,3.255324E1,5.2805298E1,3.9110646E0,-5.378769E1,1.0020312E2,1.2206374E2,8.357793E1,3.2669666E1,1.2853098E2,1.5585735E2,1.00794075E2,1.21070244E2,1.5021007E2,1.7218556E2,1.3032521E2,1.5360573E2,1.8923651E2,1.6871503E2,2.201508E2,1.9582861E2],"split_indices":[8,8,8,8,8,8,8,8,12,12,12,12,12,8,8,5,3,8,8,8,7,8,5,8,5,8,7,6,6,7,5,3,7,3,8,4,3,6,6,6,6,8,5,6,6,8,8,6,6,7,8,6,6,8,5,8,6,8,8,8,8,7,12,0,0,0,0,0,0,0,0,0,0,0,0,0,0,0,0,0,0,0,0,0,0,0,0,0,0,0,0,0,0,0,0,0,0,0,0,0,0,0,0,0,0,0,0,0,0,0,0,0,0,0,0,0,0,0,0,0,0,0,0,0,0,0,0],"split_type":[0,0,0,0,0,0,0,0,0,0,0,0,0,0,0,0,0,0,0,0,0,0,0,0,0,0,0,0,0,0,0,0,0,0,0,0,0,0,0,0,0,0,0,0,0,0,0,0,0,0,0,0,0,0,0,0,0,0,0,0,0,0,0,0,0,0,0,0,0,0,0,0,0,0,0,0,0,0,0,0,0,0,0,0,0,0,0,0,0,0,0,0,0,0,0,0,0,0,0,0,0,0,0,0,0,0,0,0,0,0,0,0,0,0,0,0,0,0,0,0,0,0,0,0,0,0,0],"sum_hessian":[9.7009E4,5.6818E4,4.0191E4,2.2365E4,3.4453E4,2.6919E4,1.3272E4,8.349E3,1.4016E4,1.6692E4,1.7761E4,1.441E4,1.2509E4,9.476E3,3.796E3,2.277E3,6.072E3,6.47E3,7.546E3,1.2606E4,4.086E3,1.5146E4,2.615E3,1.2327E4,2.083E3,9.859E3,2.65E3,5.315E3,4.161E3,2.662E3,1.134E3,7.53E2,1.524E3,3.428E3,2.644E3,2.963E3,3.507E3,3.881E3,3.665E3,5.931E3,6.675E3,3.367E3,7.19E2,7.654E3,7.492E3,1.39E2,2.476E3,6.185E3,6.142E3,9.3E1,1.99E3,5.309E3,4.55E3,2.469E3,1.81E2,1.968E3,3.347E3,1.066E3,3.095E3,1.22E3,1.442E3,7.49E2,3.85E2,3.71E2,3.82E2,4.48E2,1.076E3,1.57E3,1.858E3,1.063E3,1.581E3,1.228E3,1.735E3,2.295E3,1.212E3,2.885E3,9.96E2,1.961E3,1.704E3,1.574E3,4.357E3,2.198E3,4.477E3,1.767E3,1.6E3,6.72E2,4.7E1,2.725E3,4.929E3,2.436E3,5.056E3,1.13E2,2.6E1,1.15E3,1.326E3,2.227E3,3.958E3,2.396E3,3.746E3,3.3E1,6E1,9.91E2,9.99E2,2.137E3,3.172E3,1.838E3,2.712E3,1.349E3,1.12E3,1.71E2,1E1,1.439E3,5.29E2,3.214E3,1.33E2,8.2E2,2.46E2,1.754E3,1.341E3,8.16E2,4.04E2,9.2E2,5.22E2,4.71E2,2.78E2,2.51E2,1.34E2],"tree_param":{"num_deleted":"0","num_feature":"13","num_nodes":"127","size_leaf_vector":"1"}},{"base_weights":[9.7729795E-2,-9.227787E2,1.206536E3,-1.6884716E3,-4.8154346E2,6.6934204E2,2.1578215E3,-2.158317E3,-1.4468553E3,-8.0001117E2,-2.017024E2,3.6943463E2,9.9503955E2,1.814744E3,2.9587415E3,-2.5056594E3,-2.0238237E3,-1.7106504E3,-1.2863453E3,-6.939882E2,-1.2144762E3,-6.3528906E2,-1.14028564E2,6.033421E2,2.0467732E2,1.2141786E3,8.170244E2,1.5879442E3,2.0760647E3,2.6705151E3,3.5319177E3,-1.3902718E2,-2.433969E3,-2.2156665E3,-1.8875356E3,-1.9027614E3,-1.5729849E3,-1.497799E3,-1.1343923E3,-8.593132E2,-5.2001587E2,-1.4399547E3,-1.068909E3,-4.1515134E2,-8.8884436E2,-2.5465845E2,3.9991035E1,4.4913425E2,8.281987E2,2.7334708E2,-3.7957028E2,1.01001996E3,1.4350719E3,5.6882544E2,1.0112462E3,1.9534438E3,1.4259E3,2.409554E3,1.9440608E3,2.7955525E3,2.394097E3,3.2232568E3,3.8335225E3,-1.3038274E2,-1.1702889E2,-1.09159996E2,-1.2734635E2,-8.582178E1,-9.853256E1,-9.084576E1,-1.1066738E2,-7.484929E1,-9.5134125E1,-5.9683723E1,-8.012328E1,-4.274199E1,-6.3580242E1,-2.9452234E1,-5.1339447E1,-9.997015E0,-3.205316E1,-6.3797035E1,-8.77183E1,-4.7523556E1,-7.345084E1,-3.0961863E1,-2.832343E0,-6.2452496E1,-3.5903454E1,3.928595E0,-1.8098215E1,1.4855777E1,-4.726474E0,4.178612E1,1.7282497E1,5.8528572E1,3.5054817E1,3.6649094E0,2.3138754E1,-3.9493706E1,-7.600315E0,7.007966E1,4.528404E1,6.8080986E1,9.243048E1,3.2836708E1,-2.729623E0,5.3349884E1,1.919029E1,1.0943915E2,9.2298454E1,7.535344E1,5.0395214E1,1.1154136E2,1.3421046E2,8.6666885E1,1.05730064E2,1.6837753E2,1.3758043E2,1.2530054E2,1.00765396E2,1.7241716E2,1.478637E2,1.810848E2,2.0187454E2],"categories":[],"categories_nodes":[],"categories_segments":[],"categories_sizes":[],"default_left":[0,0,0,0,0,0,0,0,0,0,0,0,0,0,0,0,0,0,0,0,0,0,0,0,0,0,0,0,0,0,0,0,0,0,0,0,0,0,0,0,0,0,0,0,0,0,0,0,0,0,0,0,0,0,0,0,0,0,0,0,0,0,0,0,0,0,0,0,0,0,0,0,0,0,0,0,0,0,0,0,0,0,0,0,0,0,0,0,0,0,0,0,0,0,0,0,0,0,0,0,0,0,0,0,0,0,0,0,0,0,0,0,0,0,0,0,0,0,0,0,0,0,0,0,0],"id":13,"left_children":[1,3,5,7,9,11,13,15,17,19,21,23,25,27,29,31,33,35,37,39,41,43,45,47,49,51,53,55,57,59,61,-1,63,65,67,69,71,73,75,77,79,81,83,85,87,89,91,93,95,97,99,101,103,105,107,109,111,113,115,117,119,121,123,-1,-1,-1,-1,-1,-1,-1,-1,-1,-1,-1,-1,-1,-1,-1,-1,-1,-1,-1,-1,-1,-1,-1,-1,-1,-1,-1,-1,-1,-1,-1,-1,-1,-1,-1,-1,-1,-1,-1,-1,-1,-1,-1,-1,-1,-1,-1,-1,-1,-1,-1,-1,-1,-1,-1,-1,-1,-1,-1,-1,-1,-1],"loss_changes":[1.0801142E11,1.856915E10,2.1485105E10,2.2779904E9,3.1076419E9,2.6245632E9,4.1641083E9,3.1361843E8,5.598003E8,7.158651E8,7.0558515E8,5.3909965E8,5.0153574E8,6.26475E8,7.420805E8,3.067392E7,1.2453478E8,1.2971827E8,2.6357453E8,3.731712E8,1.0746317E8,1.7389197E8,3.344802E8,2.0011686E8,3.2953018E8,2.5885184E8,3.4221517E8,3.3439437E8,2.1252096E8,9.806643E7,1.2905267E8,0E0,1.8471936E7,1.636864E7,3.764429E7,5.1703296E7,7.054336E7,1.0787482E8,1.833385E8,3.008041E8,2.4520064E8,6.4799744E7,9.442227E7,1.223711E8,8.829875E7,2.886635E8,2.5498005E8,1.3701107E8,1.0148646E8,2.7841754E8,8.055194E7,1.2142234E8,8.162202E7,1.71243E8,1.390935E8,4.0121344E7,1.3242931E8,6.249011E7,1.2355072E8,4.304077E7,3.5264E7,3.512371E7,1.8343936E7,0E0,0E0,0E0,0E0,0E0,0E0,0E0,0E0,0E0,0E0,0E0,0E0,0E0,0E0,0E0,0E0,0E0,0E0,0E0,0E0,0E0,0E0,0E0,0E0,0E0,0E0,0E0,0E0,0E0,0E0,0E0,0E0,0E0,0E0,0E0,0E0,0E0,0E0,0E0,0E0,0E0,0E0,0E0,0E0,0E0,0E0,0E0,0E0,0E0,0E0,0E0,0E0,0E0,0E0,0E0,0E0,0E0,0E0,0E0,0E0,0E0,0E0],"parents":[2147483647,0,0,1,1,2,2,3,3,4,4,5,5,6,6,7,7,8,8,9,9,10,10,11,11,12,12,13,13,14,14,15,15,16,16,17,17,18,18,19,19,20,20,21,21,22,22,23,23,24,24,25,25,26,26,27,27,28,28,29,29,30,30,32,32,33,33,34,34,35,35,36,36,37,37,38,38,39,39,40,40,41,41,42,42,43,43,44,44,45,45,46,46,47,47,48,48,49,49,50,50,51,51,52,52,53,53,54,54,55,55,56,56,57,57,58,58,59,59,60,60,61,61,62,62],"right_children":[2,4,6,8,10,12,14,16,18,20,22,24,26,28,30,32,34,36,38,40,42,44,46,48,50,52,54,56,58,60,62,-1,64,66,68,70,72,74,76,78,80,82,84,86,88,90,92,94,96,98,100,102,104,106,108,110,112,114,116,118,120,122,124,-1,-1,-1,-1,-1,-1,-1,-1,-1,-1,-1,-1,-1,-1,-1,-1,-1,-1,-1,-1,-1,-1,-1,-1,-1,-1,-1,-1,-1,-1,-1,-1,-1,-1,-1,-1,-1,-1,-1,-1,-1,-1,-1,-1,-1,-1,-1,-1,-1,-1,-1,-1,-1,-1,-1,-1,-1,-1,-1,-1,-1,-1],"split_conditions":[1.5710667E4,1.3298667E4,1.8173334E4,1.1922E4,1.4499333E4,1.68E4,